tree
version=v4
num_class=1
num_tree_per_iteration=1
label_index=0
max_feature_idx=21
objective=binary sigmoid:1
feature_names=log_ret mom_1 mom_3 mom_5 vol_5 vol_20 rsi_14 MACD_12_26_9 MACDh_12_26_9 MACDs_12_26_9 BBL_20_2.0 BBM_20_2.0 BBU_20_2.0 BBB_20_2.0 BBP_20_2.0 atr_14 day_of_week_cat session_bucket_cat volatility_regime_cat trend_regime_cat volume_regime_cat ret_sign_pattern_cat
feature_infos=[-0.076921392665562804:0.069971353544643747] [-0.074037361799466184:0.072477458136539274] [-0.094229364499634816:0.14405331510594666] [-0.097735573411249055:0.14591356439880188] [0:0.050072321624507636] [0.00020344172471826319:0.023683198904492959] [3.3083258356386454:97.920224206672472] [-22.594367003749767:28.682301045099621] [-8.7856354518575905:14.547412646240286] [-18.585384197718351:23.622115927560245] [983.22007727998357:1650.1352284638933] [995.20500000000015:1657.6299999999999] [1005.5425296268618:1681.5053447815467] [0.068282553769193108:17.54322261438368] [-0.58936860258560242:1.5894429018915286] [0.42454027857881083:24.514080200342971] [0:4] [-1:7] [0:2] [0:2] [0:2] [0:7]
tree_sizes=3535 3562 3561 3584 3574 3549 3557 3572 3572 3567 3547 3555 3570 3574 3556 3565 3552 3556 3559 3571 3575 3575 3545 3572 3535 3582 3552 3583 3546 3544 3522 3559 3550 3553 3516 3578 3569 3581 3574 3566 3539 3556 3521 3568 3574 3576 3539 3573 3545 3567 3557 3555 3564 3549 3560 3550 3575 3560 3571 3545 3549 3580 3560 3585 3542 3582 3535 3521 3551 3527 3558 3539 3557 3550 3550 3562 3557 3571 3552 3565 3546 3553 3573 3567 3558 3530 3550 3544 3536 3578 3567 3558 3552 3554 3547 3567 3552 3562 3572 3547 3571 3575 3540 3555 3567 3571 3566 3568 3559 3544 3559 3534 3564 3542 3549 3555 3519 3526 3556 3554 3574 3556 3565 3540 3562 3573 3555 3555 3570 3550 3548 3553 3572 3532 3544 3549 3563 3552 3520 3557 3562 3562 3530 3554 3564

Tree=0
num_leaves=31
num_cat=0
split_feature=2 0 2 17 17 17 0 20 12 19 0 12 2 11 17 17 0 5 13 0 9 7 8 8 2 2 0 0 11 13
split_gain=133.367 96.0642 62.6745 36.1295 32.5407 55.7897 37.674 33.9605 25.89 20.9667 20.8592 21.968 17.0079 16.4887 15.6286 34.76 28.8826 15.8267 15.2783 14.9373 14.2223 17.2955 13.2872 13.2464 12.9546 12.3185 11.28 11.2739 10.5937 10.2377
threshold=0.0003584871869624085 -0.0020226368828696324 0.01041721465414547 -1.0000000180025095e-35 -1.0000000180025095e-35 1.0000000180025095e-35 0.0026027062832352454 1.0000000180025095e-35 1404.4950196440921 1.0000000180025095e-35 -0.00047306674288726544 1209.6339986637329 -0.0047923267838772534 1304.4075000000005 1.5000000000000002 3.5000000000000004 0.00062532804037159168 0.0010548455760442125 0.69076895389694704 0.0001878904608292201 1.981640712528457 -0.28090745840870562 0.64226605433364836 0.3123181803651614 0.0011739010201630153 -0.0010720725136319496 -0.0005194484072734625 0.00028345340940213152 1148.9575000000002 0.32315237074040509
decision_type=2 2 2 2 2 2 2 2 2 2 2 2 2 2 2 2 2 2 2 2 2 2 2 2 2 2 2 2 2 2
left_child=1 3 4 12 6 22 7 19 14 -10 18 -12 -1 -5 17 20 -17 -3 24 -2 21 23 27 -16 -7 -19 -27 -6 -28 -13
right_child=2 8 -4 13 5 10 -8 -9 9 -11 11 29 -14 -15 15 16 -18 25 -20 -21 -22 -23 -24 -25 -26 26 28 -29 -30 -31
leaf_value=-0.060538619317234019 -0.10464006186865585 -0.093513229276426163 -0.11423008013896419 -0.08578352303043521 -0.074934935897898416 -0.090281919660169754 -0.11205226108902785 -0.086085688386935519 -0.077859850983018355 -0.088761938811336968 -0.096982394863737775 -0.097867013097843264 -0.077525247884418266 -0.076042966710982901 -0.090131104383511795 -0.08819395676685185 -0.095336086316147511 -0.084501107178554774 -0.086604153466754125 -0.093211753832958086 -0.088841329930774232 -0.097316436402141202 -0.091262381152454164 -0.098794115992334064 -0.10372595222487541 -0.095438699121073264 -0.092772634172607157 -0.085610655010008876 -0.085061279087109004 -0.092437991581221624
leaf_weight=101.28895023465157 297.87932655215263 405.15580093860626 136.21617445349693 639.16820320487022 172.14131936430931 170.89391849935055 167.40119607746601 207.31802375614643 275.9250713288784 383.45102588832378 2043.242616802454 350.76912322640419 126.98540805280209 211.55918669700623 783.11826302111149 3295.8825653940439 600.24929621815681 908.85627020895481 561.08090905845165 162.66107279062271 428.60693719983101 1143.617112994194 142.45317877829075 197.83777718245983 100.78998988866806 214.05398842692375 236.00824365019798 199.08517804741859 479.50089249014854 2967.3171775639057
leaf_count=406 1194 1624 546 2562 690 685 671 831 1106 1537 8190 1406 509 848 3139 13211 2406 3643 2249 652 1718 4584 571 793 404 858 946 798 1922 11894
internal_value=-0.0911231 -0.0889135 -0.0941224 -0.0804399 -0.0937543 -0.0930555 -0.09934 -0.0961049 -0.0898938 -0.0841637 -0.0938455 -0.0945326 -0.0698215 -0.0833286 -0.0903309 -0.0910838 -0.0892989 -0.0881744 -0.0894415 -0.100649 -0.0938014 -0.0948097 -0.0835715 -0.0918689 -0.0952418 -0.0869891 -0.0894425 -0.0805894 -0.0876243 -0.0930183
internal_weight=18110.5 10431.3 7679.25 1079 7543.03 6707.77 835.26 667.858 9352.26 659.376 6194.09 5361.33 228.274 850.727 8692.89 6449.31 3896.13 2243.58 832.765 460.54 2553.18 2124.57 513.68 980.956 271.684 1838.42 929.563 371.226 715.509 3318.09
internal_count=72593 41812 30781 4325 30235 26887 3348 2677 37487 2643 24828 21490 915 3410 34844 25851 15617 8993 3338 1846 10234 8516 2059 3932 1089 7369 3726 1488 2868 13300
is_linear=0
shrinkage=1


Tree=1
num_leaves=31
num_cat=0
split_feature=2 0 0 0 12 12 10 19 10 13 0 3 4 14 10 2 20 8 15 0 13 8 20 9 0 9 4 0 2 10
split_gain=125.527 90.3883 60.2657 33.6697 24.3609 21.717 22.644 19.7058 14.2362 11.921 14.2201 17.1673 10.3975 14.2219 11.4303 12.8926 10.605 10.1523 12.9383 13.8346 11.0602 10.0151 9.85713 15.1795 9.22414 10.94 9.32925 15.2804 12.1079 11.894
threshold=0.0003584871869624085 -0.0020226368828696324 0.0058891973885652664 -0.0056897027986968704 1404.4950196440921 1029.6089038971211 1445.6236331271964 1.0000000180025095e-35 1282.8077060374546 0.32315237074040509 0.0010853134924034146 0.0087021874270882833 0.001483817089257397 0.32247110266681106 1188.514587194677 0.00061127029697627411 1.0000000180025095e-35 -0.33529305173979923 3.5422838782972677 -8.0971660095914108e-05 0.34758178417016911 -0.45933510591834431 1.0000000180025095e-35 1.3286763939932345 0.0005966364804743503 -3.6304515845469081 0.0010539245919697091 -0.00014961660960646211 -0.0010989945508657615 1185.4677303770366
decision_type=2 2 2 2 2 2 2 2 2 2 2 2 2 2 2 2 2 2 2 2 2 2 2 2 2 2 2 2 2 2
left_child=1 3 5 -1 17 -2 9 -6 -5 -7 11 12 14 -14 15 -11 -15 18 20 -20 -3 -10 -12 -24 25 -19 27 28 29 -27
right_child=2 4 -4 8 7 6 -8 -9 21 10 22 -13 13 16 -16 -17 -18 24 19 -21 -22 -23 23 -25 -26 26 -28 -29 -30 -31
leaf_value=0.022739722331129274 0.011199763908096022 0.0090574447899030453 -0.021180770496991057 0.0055079772630797471 0.012994454737834248 -0.006872665437790285 0.0051906994100815928 0.0024253471879444278 0.020251203250630477 0.001675103562608884 -0.0075022590274630048 -0.0136026316898205 0.007385155473314876 -0.0038480582788761731 -0.00095378687020808168 -0.0064570825807170164 0.0019648611358893159 -0.007612974862908752 0.0004553732285632938 0.01414374916814834 0.0011556518271185051 0.0086900787180888717 -0.0051886908871453738 0.002220248243076618 -0.002828231582755567 0.0072281096722934144 0.0028779373221324632 0.0023289229267410261 -0.0032737838169678637 -0.001307856843478282
leaf_weight=170.75893008708954 103.01516136527061 171.15037374198437 156.05546440184116 615.4126518368721 276.08137413859367 633.75587226450443 320.56436043977737 383.49415239691734 122.56867669522762 216.5078431814909 720.06005673110485 104.50019447505474 243.24312415719032 502.85555917024612 1982.0296173095703 859.53010983765125 639.20315352082253 138.46264587342739 115.77207908034325 162.93662905693054 2325.2991231679916 170.74274778366089 848.86389647424221 347.97566328942776 783.31925810873508 227.03977002203465 1497.7623778283596 1505.6354285031557 1359.1688326746225 406.67067435383797
leaf_count=684 413 686 626 2466 1106 2541 1285 1537 491 868 2887 419 975 2016 7945 3446 2562 555 464 653 9320 684 3403 1395 3140 910 6003 6035 5448 1630
internal_value=0.000135141 0.00227856 -0.00277507 0.0104961 0.00132748 -0.00238846 -0.00258064 0.00688499 0.00815638 -0.00293438 -0.00254498 -0.00162586 -0.00133781 0.000809938 -0.00231559 -0.00480686 -0.000582608 0.000903351 0.00240062 0.00853335 0.0017068 0.0136246 -0.00471581 -0.003022 0.000198417 0.000663523 0.00089737 4.45949e-05 -0.00167401 0.00173327
internal_weight=18110.4 10432.3 7678.16 1079.48 9352.79 7522.1 7419.09 659.576 908.724 7098.53 6464.77 4547.87 4443.37 1385.3 3058.07 1076.04 1142.06 8693.22 2775.16 278.709 2496.45 293.311 1916.9 1196.84 5918.06 5134.74 4996.28 3498.51 1992.88 633.71
internal_count=72593 41812 30781 4325 37487 30155 29742 2643 3641 28457 25916 18231 17812 5553 12259 4314 4578 34844 11123 1117 10006 1175 7685 4798 23721 20581 20026 14023 7988 2540
is_linear=0
shrinkage=0.03


Tree=2
num_leaves=31
num_cat=0
split_feature=2 1 2 17 17 17 1 1 20 12 1 12 8 2 11 17 17 1 5 13 9 14 2 13 2 13 2 14 1 10
split_gain=118.152 85.0493 57.6416 33.3268 30.2189 52.092 34.4815 31.9126 24.3555 22.9214 19.0922 20.0653 18.3497 15.5063 14.8799 14.4683 32.6345 26.7708 14.803 14.2365 13.2352 13.927 12.7391 12.5209 12.2105 11.7729 11.3599 11.0871 10.5575 10.4133
threshold=0.0003584871869624085 -0.0020205927313091117 0.01041721465414547 -1.0000000180025095e-35 -1.0000000180025095e-35 1.0000000180025095e-35 0.0026060962636920153 -7.8557681098490026e-05 1.5000000000000002 1404.4950196440921 -0.00047295486445830809 1209.6339986637329 -0.087410818692290268 -0.0047923267838772534 1304.4075000000005 1.5000000000000002 3.5000000000000004 0.00058033393390255494 0.0010548455760442125 0.69076895389694704 1.981640712528457 0.1118373351741395 0.0020527996055270674 0.74644082048431393 0.0011739010201630153 0.86062713765534127 -0.0010720725136319496 0.84843653287778065 -0.00051931351730660758 1307.1016480655337
decision_type=2 2 2 2 2 2 2 2 2 2 2 2 2 2 2 2 2 2 2 2 2 2 2 2 2 2 2 2 2 2
left_child=1 3 4 13 6 23 7 22 -9 15 19 -12 25 -1 -5 18 20 -18 -3 24 21 -17 -2 -6 -7 -11 -20 -21 -28 -19
right_child=2 9 -4 14 5 10 -8 8 -10 12 11 -13 -14 -15 -16 16 17 29 26 27 -22 -23 -24 -25 -26 -27 28 -29 -30 -31
leaf_value=0.029230411682168309 -0.0064812125189658305 -0.0022118982497243739 -0.021994213464856738 0.0050727154351602813 0.015829488799884224 0.0009959438255930412 -0.019898616326772471 -0.0038512852588633542 0.01258910680237396 0.0074287022700054751 -0.0054294976155108213 -0.0016399352660158618 0.001131838195036897 0.013010485551202881 0.014323208655138232 0.0027850010054289321 0.0029900159856088978 -0.0016296773748755019 0.0064860263203652055 0.0019777548215142333 0.0023019139476604645 -0.0043969458946379186 -0.020415805018202567 0.0047801801007257049 -0.012057727313661708 0.019338806484997143 -0.0040605244228239003 0.011658287283932504 0.0034993048644649393 -0.010889961680013251
leaf_weight=101.45251615345478 130.16464242339134 405.13072273135185 135.96208719909191 639.52632367610931 123.78224398195744 170.88925951719284 167.12211112678051 312.71767753362656 108.29723335802555 247.39723317325115 2042.2696967571974 3317.4680032730103 299.75010411441326 127.10473893582821 211.79581907391548 276.42291471362114 3252.8134950399399 502.8489181548357 909.21054719388485 416.22051113843918 428.68150740861893 1847.8298670947552 116.43412232398987 390.03066043555737 100.72068120539188 112.59685412049294 214.01463247835636 144.97046811878681 715.65073531866074 140.92786985635757
leaf_count=406 522 1624 546 2562 496 685 671 1254 434 991 8190 13300 1201 509 848 1108 13036 2016 3643 1668 1718 7408 467 1563 404 451 858 581 2868 565
internal_value=0.000131313 0.00221061 -0.00269243 0.0101802 -0.00233957 -0.00166608 -0.00772406 -0.0046288 0.000361926 0.00128789 -0.00242986 -0.00308745 0.00667807 0.0203715 0.0074058 0.00087639 0.000151889 0.00188123 0.00295101 0.00178292 -0.00248146 -0.00345445 -0.013177 0.00749677 -0.00381618 0.0112387 0.00409721 0.00452146 0.00174038 -0.00369384
internal_weight=18110.2 10433.2 7677.05 1079.88 7541.09 6706.35 834.736 667.614 421.015 9353.28 6192.54 5359.74 659.744 228.557 851.322 8693.53 6449.52 3896.59 2244.01 832.801 2552.93 2124.25 246.599 513.813 271.61 359.994 1838.88 561.191 929.665 643.777
internal_count=72593 41812 30781 4325 30235 26887 3348 2677 1688 37487 24828 21490 2643 915 3410 34844 25851 15617 8993 3338 10234 8516 989 2059 1089 1442 7369 2249 3726 2581
is_linear=0
shrinkage=0.03


Tree=3
num_leaves=31
num_cat=0
split_feature=2 0 0 0 20 12 10 19 12 21 10 11 6 13 4 3 0 4 2 14 12 0 5 5 12 0 21 5 14 5
split_gain=111.211 80.0424 54.7853 30.6926 27.8762 21.5796 20.532 18.1185 15.1343 14.4482 12.7434 12.3798 12.055 11.5953 10.6668 9.67697 11.3186 9.71717 10.9818 16.8814 9.63167 9.71528 8.66785 12.612 10.4506 8.33732 8.10442 8.08108 7.84853 20.9768
threshold=0.0003584871869624085 -0.0020226368828696324 0.0041268922177154091 -0.0056897027986968704 1.0000000180025095e-35 1404.4950196440921 1445.6236331271964 1.0000000180025095e-35 1031.9110038528672 1.5000000000000002 1282.8077060374546 1045.7775000000004 37.024995102601721 0.32315237074040509 0.00063291733479303117 0.0087021874270882833 0.00084001532362434385 0.00053428504691025358 0.0006484617350314138 0.68571109935399044 1318.0855265390528 -7.4615729134199472e-05 0.0010623404063162373 0.001391853611379282 1318.8062690704107 0.00030013131012248604 1.5000000000000002 0.0022118833279082795 0.32247110266681106 0.0017879900315684934
decision_type=2 2 2 2 2 2 2 2 2 2 2 2 2 2 2 2 2 2 2 2 2 2 2 2 2 2 2 2 2 2
left_child=1 3 6 -1 -4 9 8 -7 -2 22 -5 27 14 26 -13 16 17 18 -15 -20 -14 -22 -3 24 -24 -23 -10 -11 29 -19
right_child=2 5 4 10 -6 7 -8 -9 13 11 -12 12 20 15 -16 -17 -18 28 19 -21 21 25 23 -25 -26 -27 -28 -29 -30 -31
leaf_value=0.021559644323352917 0.0077145354328166183 -0.0027221690279492796 -0.023269228042258863 0.0051335220193908472 -0.0056306194508790484 0.012334268778513605 0.0053746391179259629 0.0022016676441930058 -0.013497092692228225 -0.00028742055757622156 0.012812993561988497 -0.0021106430422960752 0.0024623534359649222 0.00089457303016145511 0.0081714182549593433 -0.0092424589524541818 -0.0037905054618010202 -0.0018238390964588332 -0.014177813225381836 -0.0019446141742217355 -0.0028655516962150618 0.0056397536217727001 0.0073780192297683758 -0.00094636602938319523 -0.0027499175972304011 -0.0016107174115769726 -0.0047661851401510982 -0.0098001140873739418 -0.0010092795092797671 0.01097464189383923
leaf_weight=170.92499633133411 128.72121743857861 1251.4876438081264 165.2153784930706 615.69631063938141 163.67224897444248 276.27966724336147 316.62954771518707 383.61238770186901 121.40535444021225 237.52349872887135 293.55476826429367 109.28189267218113 3372.2576152682304 221.22141501307487 471.36604189872742 171.43477518856525 2102.5265612900257 294.34681202471256 181.54096461832523 237.16285212337971 730.51582247018814 313.16148348152637 349.81817834079266 1357.6498326808214 121.00584751367569 256.44473496079445 510.78655660152435 123.25594907999039 2874.4973703026772 186.64041085541248
leaf_count=684 516 5016 664 2466 657 1106 1269 1537 487 952 1175 438 13516 887 1889 688 8432 1180 728 951 2928 1255 1402 5441 485 1028 2049 494 11525 748
internal_value=0.000127518 0.00214464 -0.00261235 0.00987498 -0.0145805 0.00124936 -0.00207264 0.00647887 -0.0024109 0.000849995 0.0076407 0.00175659 0.00212774 -0.00260301 0.00621017 -0.00220818 -0.00200647 -0.00106319 -0.0044504 -0.00730555 0.00161598 -0.000568028 -0.000797617 0.0005122 0.00474295 0.0023521 -0.00648522 -0.00359688 -0.000411609 0.00312378
internal_weight=18109.6 10433.8 7675.8 1080.18 328.888 9353.66 7346.91 659.892 7030.28 8693.77 909.251 5613.81 5253.03 6901.56 580.648 6269.37 6097.94 3995.41 639.925 418.704 4672.38 1300.12 3079.96 1828.47 470.824 569.606 632.192 360.779 3355.48 480.987
internal_count=72593 41812 30781 4325 1321 37487 29460 2643 28191 34844 3641 22500 21054 27675 2327 25139 24451 16019 2566 1679 18727 5211 12344 7328 1887 2283 2536 1446 13453 1928
is_linear=0
shrinkage=0.03


Tree=4
num_leaves=31
num_cat=0
split_feature=2 0 0 0 12 11 17 20 17 2 2 13 19 0 2 15 17 17 0 17 12 0 11 17 17 9 13 13 4 21
split_gain=105.41 67.2252 66.0696 23.853 22.6897 22.2557 20.4966 49.0809 31.8262 19.7026 17.2708 17.2632 15.8689 14.9169 15.1753 14.6291 14.6062 20.8838 22.6229 14.7629 14.4776 14.2231 13.5752 13.0537 16.3021 12.5805 11.8479 10.6117 10.4858 10.1485
threshold=-0.00037388419018896663 -0.0056897027986968704 0.0072182824839392363 -0.0019511408197679658 1399.5590851104073 1454.8150000000003 -1.0000000180025095e-35 1.0000000180025095e-35 1.0000000180025095e-35 0.0018155248011892946 0.0037740519045967873 0.74644082048431393 1.0000000180025095e-35 -0.0013713292214180127 0.00081717706218098496 3.0577612241761476 1.5000000000000002 4.5000000000000009 0.00058016560528650104 5.5000000000000009 1205.5454624531828 -0.00060121318100694995 1304.4075000000005 4.5000000000000009 6.5000000000000009 1.981640712528457 0.65734308402153929 0.95234627244659953 0.00038781927126199547 1.5000000000000002
decision_type=2 2 2 2 2 2 2 2 2 2 2 2 2 2 2 2 2 2 2 2 2 2 2 2 2 2 2 2 2 2
left_child=1 -1 5 22 16 6 7 10 11 -9 15 -8 -6 -10 23 -2 -5 25 19 -19 21 -16 -3 27 28 -18 -21 -15 -25 -26
right_child=2 3 -4 4 12 -7 8 9 13 -11 -12 -13 -14 14 20 -17 17 18 -20 26 -22 -23 -24 24 29 -27 -28 -29 -30 -31
leaf_value=0.021889074065631325 -0.009614233369332665 0.0047839863457767688 -0.025453746906739877 0.0038250678897112367 0.013630420027166258 0.005551270829137504 0.014052694346095511 0.009761746211275249 0.004157499051755313 -0.0057225114748601022 -0.018650958834776125 0.0023488134489692328 0.0020782824756021079 -0.0032989740708806474 0.0041066221424003544 0.0027622444426977553 -0.0025358879727699598 0.01153232210624862 -0.0043979321584624127 0.0054361832789945391 -0.001866400816995282 -0.0062384948210350124 0.013197132776878314 0.0094367306953543773 -0.011307817665576522 0.0035034058538617814 -0.00013608439662317226 0.00081186078050215994 0.0019572862403246854 -0.00061453702970763388
leaf_weight=163.72162565588951 487.80382099747658 658.25417003035545 103.82450868189335 1525.9777523428202 237.86236160993576 385.35925531387329 150.5446589589119 202.86860696971416 361.09392075240612 113.96145455539227 160.96031801402569 471.80998164415359 200.93023709952831 1802.6180755794048 126.98007945716381 101.68191887438297 1905.3436654210091 213.12713009119034 332.70017375051975 789.13092477619648 2548.0887135714293 1573.2119053602219 239.65669994056225 212.53584423661232 110.24239055812359 368.09176921844482 598.23342536389828 814.99840317666531 851.63461588323116 295.85495026409626
leaf_count=655 1957 2636 418 6114 952 1544 603 813 1447 457 647 1891 805 7227 509 408 7638 854 1334 3162 10218 6312 959 852 442 1475 2397 3267 3414 1186
internal_value=0.000123529 0.00293074 -0.0017421 0.00248652 0.00181787 -0.00150983 -0.00177375 -0.00571417 -0.00132032 0.0041445 -0.00989633 0.00522199 0.00839137 -0.00179075 -0.00205067 -0.00745292 0.00131072 0.000394366 0.00268874 0.00417307 -0.00330709 -0.00545509 0.00705837 -0.000740794 0.00151474 -0.00155036 0.00302424 -0.00201351 0.00347262 -0.00357491
internal_weight=18109.1 7233.03 10876.1 7069.31 6171.4 10772.2 10386.9 1067.28 9319.61 316.83 750.446 622.355 438.793 8697.26 8336.16 589.486 5732.6 4206.63 1933.19 1600.49 4248.28 1700.19 897.911 4087.88 1470.27 2273.44 1387.36 2617.62 1064.17 406.097
internal_count=72593 28981 43612 28326 24731 43194 41650 4282 37368 1270 3012 2494 1757 34874 33427 2365 22974 16860 7747 6413 17039 6821 3595 16388 5894 9113 5559 10494 4266 1628
is_linear=0
shrinkage=0.03


Tree=5
num_leaves=31
num_cat=0
split_feature=0 0 11 14 14 14 3 0 11 0 11 3 13 8 0 7 12 16 14 11 8 0 5 0 7 8 7 0 7 13
split_gain=89.7089 39.9721 33.8352 29.822 27.2188 23.2186 22.4437 20.0386 15.1304 12.7714 12.1833 10.2045 9.78389 9.40826 9.28257 12.46 12.1792 19.239 11.6548 19.528 11.0986 9.39963 11.2724 9.19173 12.1149 10.7257 10.1046 9.88754 9.69946 8.45811
threshold=-0.0017768667930732976 0.0033419059902675481 1454.8150000000003 0.44009068919038369 -0.23298867004892646 0.4438467571818267 0.004200807066035984 0.0072182824839392363 1260.5025000000003 -0.0031837305572754103 1398.2425000000003 -0.00063766795850811453 1.0345942985918712 -0.45933510591834431 0.00025069725526011191 1.2954152333612685 1312.1821771547097 3.5000000000000004 0.70839965566490315 1200.2250000000001 0.93511350049913133 -0.0010456248094458638 0.0017201640276726493 0.00094994652906995355 -1.4878343668218574 0.25050075898351926 1.7611327376777128 0.0015972799211211391 -2.2087522817464555 0.76725715054036947
decision_type=2 2 2 2 2 2 2 2 2 2 2 2 2 2 2 2 2 2 2 2 2 2 2 2 2 2 2 2 2 2
left_child=4 2 5 -3 -1 10 8 12 9 -6 23 -12 -5 -10 15 21 18 -18 -16 -20 -17 22 -7 25 27 26 -2 -25 -27 -26
right_child=1 3 -4 7 6 14 -8 -9 13 -11 11 -13 -14 -15 16 20 17 -19 19 -21 -22 -23 -24 24 29 28 -28 -29 -30 -31
leaf_value=0.020390761663700463 0.00099110979658783779 0.0058211790215852779 0.007197039668551156 -0.013629795801942372 0.0088905230312421746 0.0078384836902567687 -0.0078880151708140677 -0.023217567651727285 0.01593316981184003 0.00099080038781907656 0.0115335855819063 5.3413047184832469e-05 -0.0038373925296434695 0.007531653472729714 0.0010292604668724664 0.0018783065303613091 -0.0033171379631581387 -0.012835316931662894 -0.0055984940790347248 0.00055154083156784843 -0.0050483804391761658 -0.0025402338448369528 -0.0046259413970795088 -0.0037057665487975375 -0.001974180608872369 -0.009220069729752917 0.009644490711078528 0.0061246483248122707 0.0024006333902338189 -0.011860877452040775
leaf_weight=122.94415456056595 4938.2188475579023 108.19154207408428 511.87086093425751 168.78006455302238 298.4816560447216 176.13392868638039 100.43704135715961 103.41237027943134 193.136883020401 492.35835775732994 168.12586171925068 123.03148956596851 215.11532524228096 357.90019734203815 1016.8151993304491 1807.0930317491293 1067.3497823774815 234.66781081259251 1073.9838745594025 810.93125200271606 233.45071376860142 2618.599774479866 101.02779081463814 193.27301190793514 158.08898590505123 171.59801140427589 124.03730620443821 173.06579777598381 100.0398435741663 162.09440165758133
leaf_count=492 19792 434 2050 678 1195 706 403 417 773 1972 673 493 864 1433 4078 7243 4280 941 4309 3252 936 10499 405 775 634 688 497 694 401 650
internal_value=-1.74112e-05 -0.000667298 -0.000381377 -0.00829333 0.00684426 -0.00063385 0.00566582 -0.0114632 0.00669659 0.00399875 0.000763924 0.00675065 -0.00820583 0.0105271 -0.00160069 -0.000714024 -0.00263788 -0.00505268 -0.00154781 -0.00294577 0.00107642 -0.0019808 0.00324087 0.000470831 -0.00278879 0.00089363 0.00120796 0.000901515 -0.00489223 -0.00704742
internal_weight=18124.3 16559 15963.5 595.499 1565.26 15451.6 1442.31 487.308 1341.88 790.84 6311.57 291.157 383.895 551.037 9140.05 4936.31 4203.75 1302.02 2901.73 1884.92 2040.54 2895.76 277.162 6020.42 686.522 5333.89 5062.26 366.339 271.638 320.183
internal_count=72657 66389 63996 2393 6268 61946 5776 1959 5373 3167 25297 1166 1542 2206 36649 19789 16860 5221 11639 7561 8179 11610 1111 24131 2753 21378 20289 1469 1089 1284
is_linear=0
shrinkage=0.03


Tree=6
num_leaves=31
num_cat=0
split_feature=2 0 0 11 20 0 12 19 2 3 21 9 14 13 2 0 13 12 7 0 5 10 13 14 10 12 10 0 7 12
split_gain=97.4987 71.0946 46.8876 24.9755 24.492 23.0655 17.2045 14.264 14.0126 13.2945 11.0697 12.1762 10.0267 9.98608 10.2071 11.7007 9.88779 9.59814 8.52838 7.11448 10.7416 6.85719 10.0172 6.62234 9.0952 7.76388 6.8433 6.5137 6.90803 9.37654
threshold=0.0003584871869624085 -0.0031837305572754103 0.0033419059902675481 1432.2450000000001 1.0000000180025095e-35 -0.0069975995554711875 1399.5590851104073 1.0000000180025095e-35 -0.0026747410676218881 -0.0035690110419722694 1.5000000000000002 2.7121316435686382 1.0190218218816114 0.30841127886815733 0.0015163524848280654 -0.0010661793776095669 0.28738277277616259 1038.2504036751129 3.3151479882448034 0.0016320768695907066 0.0024973215127049851 1044.8690079987857 0.71087547872097157 0.60643139426492454 1094.2239122351029 1235.6142566659025 1300.6657255435316 -0.0014408951213659405 0.42848629199886551 1205.5454624531828
decision_type=2 2 2 2 2 2 2 2 2 2 2 2 2 2 2 2 2 2 2 2 2 2 2 2 2 2 2 2 2 2
left_child=1 5 3 13 12 -1 8 -8 19 -7 11 -10 -4 16 15 -15 -2 -16 -17 20 -3 22 -12 24 -19 -26 -27 -25 -29 -30
right_child=2 6 4 -5 -6 9 7 -9 10 -11 21 -13 -14 14 17 18 -18 23 -20 -21 -22 -23 -24 27 25 26 -28 28 29 -31
leaf_value=0.024777327955097812 -0.004259593610872723 0.0047495017096725583 -0.012820182472622586 0.0059882539146941327 -0.0051307503941518196 0.0045773378056071443 0.010487620984335861 0.002059735157429392 -0.0016902552136466298 0.015792628636285961 0.004430515800086173 0.0065670224829155466 -0.026051036262130421 0.006053521403453054 0.0044963635906344751 -0.00088657561396972143 -0.014616444093683338 -0.0075124899119184633 -0.0082182899523942834 0.011275583501914275 -0.0014185145224732351 0.0015515208323625611 -0.0060137304297141489 -0.011171661701028346 0.0054867970724368012 -0.0051387948905319515 0.0022218764599870908 -0.0066655635722301862 -0.005873124743304552 -0.0010179640134883681
leaf_weight=112.46248407661915 458.16458460688591 938.43162770569324 128.37556533515453 335.53054106235504 255.32472383975983 236.39386163651943 318.42660614848137 430.64642715454102 2444.2604059427977 165.91667018830776 119.50190788507462 170.47543278336525 100.09646259248257 208.60374058783054 136.89314818382263 2689.9661338180304 103.39176397025585 162.27837933599949 150.62264081835747 104.33372965455055 343.23613922297955 4834.9298544228077 255.46455837786198 122.07702198624611 190.20208568871021 243.63131999969482 208.22668768465519 623.3417653888464 584.25968889892101 948.00204169750214
leaf_count=450 1839 3759 517 1344 1026 946 1274 1725 9797 664 479 683 404 836 549 10789 415 651 604 418 1375 19376 1024 490 763 977 835 2501 2345 3802
internal_value=-1.68081e-05 0.00186263 -0.00259236 -0.00197861 -0.0116284 0.0127265 0.00129839 0.00567158 0.00094053 0.00926751 0.000445663 -0.00114386 -0.0187704 -0.00237303 -0.00202543 -0.0007747 -0.00621572 -0.00320496 -0.00128337 0.00372114 0.00308617 0.00124635 -0.00264232 -0.00355324 -0.00118556 0.000399423 -0.00171629 -0.00438189 -0.00398541 -0.00288167
internal_weight=18123.5 10474.5 7648.99 7165.19 483.797 514.773 9959.71 749.073 9210.63 402.311 7824.63 2614.74 228.472 6829.66 6268.1 3049.19 561.556 3218.91 2840.59 1386 1281.67 5209.9 374.966 3082.02 804.338 642.06 451.858 2277.68 2155.6 1532.26
internal_count=72657 41970 30687 28740 1947 2060 39910 2999 36911 1610 31359 10480 921 27396 25142 12229 2254 12913 11393 5552 5134 20879 1503 12364 3226 2575 1812 9138 8648 6147
is_linear=0
shrinkage=0.03


Tree=7
num_leaves=31
num_cat=0
split_feature=2 0 17 14 17 17 0 20 2 11 17 17 5 17 7 2 14 17 12 2 0 12 0 12 14 0 6 14 0 16
split_gain=91.7979 66.9416 50.1507 49.4263 40.6684 32.9613 21.5848 20.9423 19.9795 22.4673 18.5488 34.5986 26.1601 25.5892 23.1558 21.488 20.9327 17.2888 16.816 14.4537 14.3798 14.3373 13.6307 13.273 12.8822 12.8701 12.4879 12.429 11.6834 12.3359
threshold=0.0003584871869624085 -0.0031837305572754103 -1.0000000180025095e-35 1.12855191464725 -1.0000000180025095e-35 1.0000000180025095e-35 -0.00067426014898547975 1.0000000180025095e-35 0.0013651603065066855 1208.7025000000003 4.5000000000000009 5.5000000000000009 0.001468069611088452 1.5000000000000002 1.7611327376777128 -0.0010264933039664246 0.65512078098921167 6.5000000000000009 1216.9263963614319 0.0010329648831225449 0.00036135000801723485 1241.2417887737054 0.00067201436161532587 1181.5751347148866 0.54012788959863733 0.0015972799211211391 53.225615351653722 0.68571109935399044 0.00030683082401454975 1.5000000000000002
decision_type=2 2 2 2 2 2 2 2 2 2 2 2 2 2 2 2 2 2 2 2 2 2 2 2 2 2 2 2 2 2
left_child=1 4 3 7 -1 28 -7 8 -2 -10 13 16 22 15 24 25 -12 -14 19 -8 -16 -20 -13 -17 -15 -3 -25 -28 29 -4
right_child=2 10 5 -5 -6 6 18 -9 9 -11 11 12 17 14 20 23 -18 -19 21 -21 -22 -23 -24 26 -26 -27 27 -29 -30 -31
leaf_value=0.024958186750336751 -0.0017332052935933363 0.0045071667619690434 0.0024231469642910751 -0.029102161177355115 0.0066227849773988507 0.0029957255171466413 -0.0014841014502266804 0.0006861834288902595 -0.0054591663334777104 -0.020668051128870435 0.013286246841934315 0.0044022712929778478 0.0017435786442496664 -0.0011721656758147329 0.0058084094354833781 -0.0042646734964433101 -0.0017844020188545065 -0.0073938279688769287 0.0051183986727903457 -0.0066496196097864902 -0.0052467443754350973 -0.0020897301606656316 -0.0026914191678544075 0.0050859043979354576 -0.0056051468855410225 0.015076068958601011 -0.010581415556007973 0.0014844232255903276 0.0011409394522126444 0.015813671574231643
leaf_weight=158.90002650022507 183.77170160412788 1121.1660009026527 112.81231462955475 99.439861759543419 355.8752613812685 630.76570756733418 749.04583190381527 238.93481338024139 161.27859178185463 201.39776419103146 408.91718089580536 1852.3428028821945 350.40645115077496 2547.2372236996889 575.14132492244244 435.86942432820797 101.59222975373268 391.34099894762039 267.73762200772762 1445.3775084465742 127.52137733995914 3133.6526184827089 277.2908226698637 523.85842575132847 772.87393125891685 115.38422444462776 108.81367813050747 250.32091054320335 277.38987362384796 146.03824730217457
leaf_count=636 738 4490 452 402 1424 2528 3006 958 649 810 1638 7420 1404 10210 2304 1747 407 1568 1074 5804 511 12569 1112 2099 3099 462 436 1003 1112 585
internal_value=-1.63344e-05 0.00180716 -0.00251581 -0.00923175 0.012349 -0.00163367 -0.00225023 -0.00666302 -0.00989924 -0.0139797 0.00125962 0.0030654 0.00177787 0.000328654 -0.00115998 0.00267749 0.0102602 -0.00306052 -0.00284467 -0.00489473 0.00377616 -0.0015166 0.00347076 1.78561e-06 -0.00220999 0.00551687 0.00212724 -0.00214897 0.00548846 0.0100673
internal_weight=18122.5 10474.9 7647.64 884.823 514.775 6762.82 6226.58 785.383 546.448 362.676 9960.08 3381.89 2871.38 6578.19 4022.77 2555.41 510.509 741.747 5595.81 2194.42 702.663 3401.39 2129.63 1318.86 3320.11 1236.55 882.993 359.135 536.24 258.851
internal_count=72657 41970 30687 3557 2060 27130 24981 3155 2197 1459 39910 13549 11504 26361 16124 10237 2045 2972 22453 8810 2815 13643 8532 5285 13309 4952 3538 1439 2149 1037
is_linear=0
shrinkage=0.03


Tree=8
num_leaves=31
num_cat=0
split_feature=0 0 12 14 14 3 14 17 17 14 4 11 0 21 12 3 13 0 17 8 17 0 13 7 4 6 0 11 11 17
split_gain=77.2121 33.8707 30.3512 26.4177 23.8398 19.8329 19.5523 17.8694 17.1681 16.284 16.1388 14.2435 13.1501 12.9832 11.9108 14.1498 12.6539 11.5662 10.8974 19.2407 13.1108 23.3064 19.7678 11.9962 20.183 11.2898 10.448 10.2779 9.8506 9.68203
threshold=-0.0017768667930732976 0.0033419059902675481 1466.3645688421159 1.2006009224834628 -0.23298867004892646 0.004200807066035984 0.39391542086154901 3.5000000000000004 6.5000000000000009 0.44009068919038369 0.00088575041062222885 1260.5025000000003 0.00082141662097871056 3.5000000000000004 1388.118105314521 -0.00029874155163217559 0.71087547872097157 -0.00070261042174996015 1.0000000180025095e-35 1.1494941951987823 -1.0000000180025095e-35 -7.2737853676571143e-05 0.70581956346830876 1.6713062286828519 0.00081040339478029115 62.022222295658217 -0.0031837305572754103 1057.3400000000001 1339.5475000000004 6.5000000000000009
decision_type=2 2 2 2 2 2 2 2 2 2 2 2 2 2 2 2 2 2 2 2 2 2 2 2 2 2 2 2 2 2
left_child=4 2 6 9 -1 11 14 18 10 -3 12 26 -9 -11 29 16 -16 -12 19 20 21 -8 -22 -20 -25 -23 -6 -19 -10 -2
right_child=1 3 -4 -5 5 -7 7 8 28 13 17 -13 -14 -15 15 -17 -18 27 23 -21 22 25 -24 24 -26 -27 -28 -29 -30 -31
leaf_value=0.019033913954803462 0.0009501187343826297 0.0055481461611552709 0.0073126049488582692 -0.021002625446471728 0.0080225535998122866 -0.0074984393548224171 -0.010027102063241432 0.0003528492153115651 -0.0016513411115611995 -0.013302296661097932 0.0090067554363467764 0.0099303784062497909 -0.0068682338675449201 -0.0020652277255221044 0.0044872425466858917 -0.0031258913014079472 0.01755610339327586 -0.0051027648114520159 -0.0044960944829652485 -0.011080326120781445 0.013952542190293649 0.0046982986983942271 0.00096901255796470189 0.0032845783526285663 -0.0039795600115162047 -0.004727307752653627 0.00087461008639814217 0.0032562903275279594 -0.0085452011479395171 -0.0029230528585357995
leaf_weight=122.87206856906414 4480.4631575196981 108.20208011567593 450.10578496754169 108.49792861938477 298.56825986504555 100.32968917489052 215.25670708715916 1445.7485951185226 1013.2565386891365 182.22085545957088 279.29206697642803 551.14062061905861 267.59129977226257 195.3198938369751 194.31232470273972 114.29428206384182 105.1458528637886 149.28223830461502 2660.4353081434965 132.80525305867195 142.60322950780392 356.03300923109055 410.0780903249979 570.47960069775581 860.98434421420097 166.11613158881664 492.41335226595402 1051.5270133912563 230.65293093025684 665.20246934890747
leaf_count=492 17957 434 1802 439 1195 403 864 5797 4065 734 1119 2206 1074 786 778 458 421 599 10672 533 571 1428 1643 2287 3452 667 1972 4218 925 2666
internal_value=-1.58125e-05 -0.000618915 -0.000355877 -0.00764662 0.00634975 0.00524645 -0.000579821 -0.00137641 3.74762e-05 -0.00459552 0.00120545 0.00621523 -0.000769546 -0.00754926 0.00084348 0.00573721 0.00916907 0.00350077 -0.00251658 -0.000243435 0.000868245 -0.0017348 0.00436527 -0.00330311 -0.00107385 0.00166767 0.00359837 0.00220125 -0.00294753 0.000446032
internal_weight=18121.2 16555.9 15961.7 594.241 1565.32 1442.45 15511.6 9952.14 4437.35 485.743 3193.44 1342.12 1713.34 377.541 5559.42 413.752 299.458 1480.1 5514.79 1422.89 1290.09 737.406 552.681 4091.9 1431.46 522.149 790.982 1200.81 1243.91 5145.67
internal_count=72657 66389 63996 2393 6268 5776 62194 39914 17797 1954 12807 5373 6871 1520 22280 1657 1199 5936 22117 5706 5173 2959 2214 16411 5739 2095 3167 4817 4990 20623
is_linear=0
shrinkage=0.03


Tree=9
num_leaves=31
num_cat=0
split_feature=2 0 17 2 17 0 0 20 2 11 17 17 5 17 7 2 12 12 2 17 14 0 0 0 10 9 5 7 0 12
split_gain=83.7467 60.7145 46.4129 41.3682 30.3005 24.1131 19.7704 17.8798 16.5033 18.5866 15.9311 30.02 25.6899 22.1919 19.8255 19.8242 15.5977 13.5554 13.4351 13.3449 18.3026 12.7483 12.456 12.227 11.7665 11.1295 10.974 10.4632 12.6093 10.2278
threshold=0.0003584871869624085 -0.0056897027986968704 -1.0000000180025095e-35 0.0065114558328815972 1.0000000180025095e-35 -0.0017768667930732976 -0.00067426014898547975 1.5000000000000002 0.0013651603065066855 1208.7025000000003 4.5000000000000009 6.5000000000000009 0.0016749575530697683 1.5000000000000002 1.7611327376777128 -0.0010264933039664246 1216.9263963614319 1241.2417887737054 0.0010329648831225449 5.5000000000000009 0.6512974191641222 0.00036135000801723485 -9.6796051023417072e-05 0.0015972799211211391 1327.2108165085599 -3.4585044845891511 0.0014407539358169093 -0.35984254491165751 0.00037555159912429798 1282.2081241576868
decision_type=2 2 2 2 2 2 2 2 2 2 2 2 2 2 2 2 2 2 2 2 2 2 2 2 2 2 2 2 2 2
left_child=1 -1 3 7 26 25 -6 8 -2 -10 13 19 27 15 -15 23 18 -18 -8 20 -12 -16 -17 -7 -21 -3 -4 -13 -29 -27
right_child=2 5 4 -5 6 10 16 -9 9 -11 11 12 -14 14 21 22 17 -19 -20 24 -22 -23 -24 -25 -26 29 -28 28 -30 -31
leaf_value=0.019516260285470852 -0.001932991880574245 -0.0038384334859963743 0.012310502586957999 -0.025919966097108681 0.0028734785167578982 0.0041862495467800886 -0.0014013136512155853 0.0021753763002461757 -0.0045750849466912637 -0.017994811516339665 0.012257281821354474 -0.003064743174597278 -0.010531111708682421 -0.0023708161460088413 0.0054142714462758531 -0.0038810460329089334 0.0050146067980186932 -0.0019936573201166539 -0.0063830578018310062 0.005018741669439524 -0.0019403163945193259 -0.0050769870130512101 0.0021782741869272367 0.014566275208903197 -0.0011569605101031508 0.0039973554812300681 0.0025935124217778584 0.0065631429164477832 -0.0040881725690851446 0.010147311451871723
leaf_weight=168.99330314993858 211.6767807751894 100.92886209487915 145.35176628828049 111.46806465089321 630.86044816672802 962.16506804525852 748.92328767478466 169.33486516773701 164.16930764913559 227.12621811032295 382.12590137124062 336.64342311024666 216.97552074491978 3140.8243363499641 529.30045901238918 501.19075517356396 267.78344994783401 3133.0530702471733 1444.5217375606298 1102.0459107756615 101.34134374558926 127.48826634883881 776.89108569920063 115.43203613162041 365.76625645160675 622.78300695121288 390.9846743196249 375.18620032072067 133.65835577249527 415.13608337938786
leaf_count=677 850 404 582 452 2528 3853 3006 679 661 915 1530 1349 870 12593 2120 2009 1074 12569 5804 4415 406 511 3113 462 1465 2493 1567 1503 536 1661
internal_value=-1.5302e-05 0.00172619 -0.00240323 -0.00886833 -0.00155478 0.00143116 -0.00214619 -0.00635752 -0.00877831 -0.0124288 0.000917411 0.00270412 -0.00134171 3.95877e-05 -0.00137677 0.0023289 -0.00271534 -0.0014361 -0.00469036 0.00491429 0.00925245 0.0033504 -0.000187295 0.00532454 0.00346986 0.0055489 0.00527282 0.00100848 0.00373341 0.00647899
internal_weight=18120.1 10474.9 7645.25 883.775 6761.48 10305.9 6225.14 772.307 602.972 391.296 9167.03 3013.74 1062.46 6153.29 3797.61 2355.68 5594.28 3400.84 2193.45 1951.28 483.467 656.789 1278.08 1077.6 1467.81 1138.85 536.336 845.488 508.845 1037.92
internal_count=72657 41970 30687 3557 27130 41293 24981 3105 2426 1576 36735 12074 4258 24661 15224 9437 22453 13643 8810 7816 1936 2631 5122 4315 5880 4558 2149 3388 2039 4154
is_linear=0
shrinkage=0.03


Tree=10
num_leaves=31
num_cat=0
split_feature=2 0 0 17 11 8 12 12 14 17 2 17 3 8 17 8 4 16 0 4 17 15 14 0 17 14 11 11 20 3
split_gain=97.0209 60.667 47.6707 28.5169 25.0518 23.7875 24.4041 19.9491 12.9299 13.2023 13.6087 13.3066 20.8771 17.9167 14.6341 11.9415 11.9242 10.6576 10.2504 9.94595 13.2184 12.8153 10.8862 9.74106 11.3937 9.81203 9.54815 13.2011 10.9097 9.38252
threshold=-0.00039396446990846984 -0.0034136199746971261 0.0058891973885652664 -1.0000000180025095e-35 1454.8150000000003 1.3796576692313942 1029.6089038971211 1399.5590851104073 -0.11300438022328513 1.5000000000000002 -0.0022572419886450197 4.5000000000000009 -0.0054578700523881243 -0.93740216508347474 5.5000000000000009 -0.1173162906950857 0.0021574905756308687 1.5000000000000002 0.0017773227316100349 0.0013980620955689946 6.5000000000000009 1.9342111639369624 0.32247110266681106 0.00071767476922942025 1.0000000180025095e-35 0.1061011322761715 1318.6625000000004 1050.5750000000005 1.0000000180025095e-35 -0.0057249420405712228
decision_type=2 2 2 2 2 2 2 2 2 2 2 2 2 2 2 2 2 2 2 2 2 2 2 2 2 2 2 2 2 2
left_child=1 3 4 -1 5 6 -2 8 -3 10 23 13 -13 -11 -14 -9 -12 -6 19 -8 21 -21 -23 24 25 -10 27 -20 -29 -5
right_child=2 7 -4 29 17 -7 18 15 9 11 16 12 14 -15 -16 -17 -18 -19 26 20 -22 22 -24 -25 -26 -27 -28 28 -30 -31
leaf_value=0.02451082455871114 0.012362650975002179 0.008066048003433279 -0.018294695552506627 0.0021238678615949007 -5.1827665825487901e-05 -0.010416737621199722 -0.0021100793368855888 0.011659862204386697 -0.0042600096182352108 0.0085455752994751683 0.0029871561164639552 -0.0096491540913083932 0.0097516077670294025 -0.0020246174898091397 0.0017983136915788243 0.0020361882912521799 -0.0050136323846047071 0.010082846571739695 -0.013369534352563914 0.0053976536180369225 -0.0050007568120786347 0.0047494769772045637 -0.0016937320647829293 0.014609607595122124 0.012914140929209656 0.0063333837618300189 -0.010249575483666626 -0.0060616443886526965 0.0010583806438909276 0.012994581955522467
leaf_weight=140.90426105260849 108.22826986014843 249.75731322169304 157.17185433208942 138.42918233573437 155.60788398981094 291.33032657206059 6776.3433913290501 284.40443819761276 130.39500300586224 153.25915591418743 827.02850331366062 127.7768882215023 239.08058460056782 2160.6520212590694 1654.490625679493 203.57287986576557 208.25285078585148 222.02688302099705 101.2125731408596 488.91770166158676 365.24049825966358 302.21641807258129 1059.9270038157701 124.67856106162071 119.144191801548 192.08320099115372 218.02654919028282 327.06777481734753 465.69183912873268 156.70886324346066
leaf_count=565 434 1000 638 554 623 1171 27183 1138 522 614 3313 512 957 8662 6628 815 834 889 407 1961 1465 1211 4252 499 477 769 876 1316 1870 627
internal_value=-0.000172196 0.00255964 -0.0019333 0.0133939 -0.00169394 -0.00196812 -0.00172466 0.0018477 0.00138344 0.00109847 0.0034258 0.000234624 0.00201532 -0.00131464 0.00281502 0.00768814 0.00135999 0.00587804 -0.00187823 -0.00153938 0.000198944 0.00123516 -0.000250749 0.00716692 0.00500355 0.00200362 -0.00460122 -0.003197 -0.00186416 0.00797091
internal_weight=18149.6 7110.62 11039 436.042 10881.8 10504.2 10212.9 6674.58 6186.6 5936.84 1601.58 4335.26 2021.35 2313.91 1893.57 487.977 1035.28 377.635 10104.6 8992.65 2216.3 1851.06 1362.14 566.301 441.622 322.478 1112 893.972 792.76 295.138
internal_count=72782 28486 44296 1746 43658 42146 40975 26740 24787 23787 6414 17373 8097 9276 7585 1953 4147 1512 40541 36072 8889 7424 5463 2267 1768 1291 4469 3593 3186 1181
is_linear=0
shrinkage=0.03


Tree=11
num_leaves=31
num_cat=0
split_feature=2 2 2 17 10 15 17 17 20 13 2 2 21 5 12 12 15 21 4 12 12 7 11 15 17 2 17 5 7 17
split_gain=91.3415 41.1432 31.1553 41.4088 26.5359 26.4685 18.7285 30.4817 28.5252 17.8064 16.9319 16.9062 13.6568 13.5109 12.3268 11.3119 11.0279 10.9469 12.6853 10.4271 10.9689 15.0321 15.6458 15.85 12.8117 11.9099 9.91534 15.0715 12.3928 11.4834
threshold=-0.00039396446990846984 0.01041721465414547 -0.0026747410676218881 -1.0000000180025095e-35 1458.2660691233548 2.9029649674860649 -1.0000000180025095e-35 1.0000000180025095e-35 1.0000000180025095e-35 0.74644082048431393 0.0018155248011892946 0.0041725618114687455 5.5000000000000009 0.0017414410811785496 1399.5590851104073 1273.2613120303502 3.3247426925529902 1.5000000000000002 0.0026650418904206135 1029.6089038971211 1191.3397060822638 2.0707661130893489 1271.2625 1.8148275469366859 2.5000000000000004 0.0010070526024613671 6.5000000000000009 0.001048044501172761 -0.32788374035101236 3.5000000000000004
decision_type=2 2 2 2 2 2 2 2 2 2 2 2 2 2 2 2 2 2 2 2 2 2 2 2 2 2 2 2 2 2
left_child=2 4 3 5 6 -1 8 9 11 -8 -10 17 14 -5 -4 -11 -6 -2 -19 -9 25 22 23 -22 -23 -21 28 -28 -24 -30
right_child=1 -3 12 13 16 -7 7 19 10 15 -12 -13 -14 -15 -16 -17 -18 18 -20 20 21 24 26 -25 -26 -27 27 -29 29 -31
leaf_value=0.0062592811315360488 -0.013599610646983333 -0.01846168585405453 0.00021751819474922807 0.006882254399984614 0.010176925980933066 0.022992324581269388 0.013937436628405419 0.00730250367037703 0.007120615792516753 0.0060893211246960868 -0.0071401538554081417 -0.018370503551713931 0.0050915485185239039 0.0011706352500025377 0.0062082118895038386 -0.0036210015137755473 -0.0015830876025596265 -0.006867119287980959 0.0050195539829084512 -0.0018222965992034836 0.004737941979016367 -0.0026111146348782497 0.00010329649027901444 -0.0021109478911818195 0.0046912196373803602 -0.0055198394247597989 -0.0024806864946189276 -0.012811528659032149 -0.0064809462080842222 -0.0015339768843170881
leaf_weight=165.79849655926228 155.65197850763798 132.17191159725189 4165.1328496038914 662.61844019591808 234.57288326323032 183.08083999156952 151.40871354937553 106.75524428486824 202.42676542699337 254.05363509058952 116.98100002110004 136.84798821806908 731.17536340653896 869.23457364737988 333.56521861255169 184.46610823273659 99.904030606150627 381.90178892016411 100.14324030280113 1797.0982836633921 547.2377415895462 326.40436498820782 1144.4476898163557 679.01578687131405 626.07109004259109 1415.9653311520815 312.78441178798676 219.28098814189434 820.47256003320217 891.38979296386242
leaf_count=664 626 536 16690 2653 939 734 606 428 811 1018 470 555 2929 3481 1335 739 400 1535 403 7208 2195 1309 4590 2724 2511 5691 1255 880 3292 3575
internal_value=-0.000166805 -0.0018758 0.00248377 0.00579647 -0.00167173 0.0151237 -0.00193628 -0.00150473 -0.00565628 0.00508643 0.0018449 -0.00876736 0.00128873 0.00365392 0.000666325 0.00197154 0.0066254 -0.00665753 -0.00436137 -0.00194448 -0.00205944 -0.00124929 -0.00195921 0.00093464 0.00217293 -0.00345764 -0.00301089 -0.00678254 -0.00230094 -0.00391615
internal_weight=18148.1 11037.5 7110.61 1880.73 10905.3 348.879 10570.8 9476.85 1093.95 589.928 319.408 774.545 5229.87 1531.85 4498.7 438.52 334.477 637.697 482.045 8886.92 8780.17 5567.1 4614.63 1226.25 952.475 3213.06 3388.38 532.065 2856.31 1711.86
internal_count=72782 44296 28486 7532 43760 1398 42421 38021 4400 2363 1281 3119 20954 6134 18025 1757 1339 2564 1938 35658 35230 22331 18511 4919 3820 12899 13592 2135 11457 6867
is_linear=0
shrinkage=0.03


Tree=12
num_leaves=31
num_cat=0
split_feature=2 1 1 17 10 10 3 11 17 17 2 13 1 1 1 15 2 17 17 5 9 2 17 1 21 2 4 5 4 10
split_gain=85.9875 56.2006 43.7126 27.7665 22.6374 15.5178 14.461 13.5266 15.9584 24.4723 22.9721 18.7231 17.531 16.9755 12.1827 11.7284 9.86521 9.8038 14.3276 19.0241 15.2213 11.5711 11.8267 18.4358 10.2799 9.78459 9.60185 9.5607 9.0057 8.87682
threshold=-0.00039396446990846984 -0.002845634639869032 0.0059065728038988361 -1.0000000180025095e-35 1458.2660691233548 1365.8400991368121 -0.0032101557697845613 1031.4000000000003 -1.0000000180025095e-35 1.0000000180025095e-35 0.0012848196957672144 0.74644082048431393 -7.2735208342999944e-05 0.0018303093443656773 -0.0010656112103143431 3.3247426925529902 0.0011505651466768854 1.5000000000000002 4.5000000000000009 0.0016232242843712867 1.981640712528457 -0.0016949836582754172 1.0000000180025095e-35 0.00062552359871181917 1.5000000000000002 -1.0000000180025095e-35 0.0014709621938788998 0.0011869769806776892 0.0018976844421721092 1127.4054318885489
decision_type=2 2 2 2 2 2 2 2 2 2 2 2 2 2 2 2 2 2 2 2 2 2 2 2 2 2 2 2 2 2
left_child=1 3 4 -1 7 17 -7 -2 10 11 27 -10 -12 -14 25 -6 -16 21 20 -20 -19 22 23 -3 -21 -11 -27 -9 -23 -22
right_child=2 5 -4 -5 15 6 -8 8 9 14 12 -13 13 -15 16 -17 -18 18 19 24 29 28 -24 -25 -26 26 -28 -29 -30 -31
leaf_value=0.021822316908958844 0.0047151022020924943 9.1220321226188021e-05 -0.017517207219655977 0.0071766303069536706 0.0097502298736133249 0.016287224037415497 0.0039992187873446744 -0.0048757026072083686 0.01345833438390308 -0.0058795471376632937 -0.017529334316649325 0.0011474733029767125 -0.00061800527922753663 -0.014359606970164529 -0.0014603403845406624 -0.0023100684859550342 -0.0036092829548354517 -0.0023971548071910998 0.0038519877719686902 -0.0087662656146429256 0.01099391237455942 0.0022923880115545536 0.011715534072718735 0.012700539169892694 0.0002392220917717599 0.01112148581656794 0.0013162596624550914 0.0033573890038261565 -0.0053675360685549716 0.00097723695315209353
leaf_weight=162.58823928236961 273.91292336583138 407.45304638147354 156.58820316195488 431.07018837332726 234.13313679397106 101.69858993589878 593.73675736784935 266.14525482058525 148.20265763998032 101.84664948284626 180.75542664527893 450.40557353198528 215.3510133177042 131.09960944950581 4904.4956581741571 101.8937714099884 3204.8827524334192 1880.4492748230696 1518.0109922140837 173.65972661972046 118.34921799600124 619.09849451482296 216.35560020804405 140.440445125103 319.94414785504341 131.27677437663078 295.23537220060825 239.38563992083073 176.24809101223946 251.70108944177628
leaf_count=653 1099 1631 638 1725 937 407 2377 1068 593 408 729 1805 866 531 19673 408 12872 7540 6079 696 474 2480 866 562 1282 526 1183 960 706 1008
internal_value=-0.000161781 0.00240977 -0.00182019 0.0112429 -0.00159129 0.00160125 0.00583853 -0.00183689 -0.00201356 -0.00161543 -0.00555471 0.00423776 -0.00993297 -0.00588747 -0.00202325 0.00605266 -0.00231181 0.00109159 0.000342663 0.00218466 -0.00129738 0.00312713 0.00576292 0.00336792 -0.00291008 0.00237333 0.00438827 -0.000948516 0.000571511 0.00424218
internal_weight=18146.4 7110.8 11035.6 593.658 10879 6517.15 695.435 10543 10269.1 9236.35 1032.74 598.608 527.206 346.451 8637.74 336.027 8109.38 5821.71 4262.11 2011.61 2250.5 1559.6 764.249 547.893 493.604 528.359 426.512 505.531 795.347 370.05
internal_count=72782 28486 44296 2378 43658 26108 2784 42313 41214 37060 4154 2398 2126 1397 34662 1345 32545 23324 17079 8057 9022 6245 3059 2193 1978 2117 1709 2028 3186 1482
is_linear=0
shrinkage=0.03


Tree=13
num_leaves=31
num_cat=0
split_feature=1 1 8 12 1 14 14 17 8 14 9 16 1 4 8 9 17 13 17 17 17 1 12 8 17 1 14 17 13 14
split_gain=75.4763 35.0373 24.8441 24.326 21.3982 19.8721 17.9999 31.4268 15.5835 13.5632 12.9188 12.1268 11.27 15.4064 12.4946 11.282 11.047 26.885 13.9151 18.3834 13.9518 12.399 12.0256 14.7542 11.4009 17.7731 19.2852 13.7063 10.5234 9.92845
threshold=-0.0025813536570430946 0.0033474963838801002 0.30571201882028604 1430.3758647168252 -0.0056735470946128177 0.54440242112859127 0.44009068919038369 -1.0000000180025095e-35 1.57735099431707 -0.11300438022328513 2.8866272277689728 1.0000000180025095e-35 -0.0010916572215575735 0.0019856189540126239 0.19423805908325067 0.48676735839829227 6.5000000000000009 0.54283943178589411 4.5000000000000009 5.5000000000000009 1.5000000000000002 -0.00018113480995340933 1299.3913168050128 0.018143697207929081 1.0000000180025095e-35 -7.4612945449914467e-05 0.062359817155154866 -1.0000000180025095e-35 1.1380145786143168 0.22050534024242854
decision_type=2 2 2 2 2 2 2 2 2 2 2 2 2 2 2 2 2 2 2 2 2 2 2 2 2 2 2 2 2 2
left_child=2 3 4 5 -1 9 -3 -8 12 -2 16 -5 13 14 -7 -14 18 -18 20 -20 24 -19 23 -21 25 26 -11 -28 -6 -26
right_child=1 6 -4 11 28 8 7 -9 -10 10 -12 -13 15 -15 -16 -17 17 21 19 22 -22 -23 -24 -25 29 -27 27 -29 -30 -31
leaf_value=0.021378518831486157 0.0078696101110109946 0.002871714644285294 -0.00035550539599851587 -0.0035545381665671016 0.011951274846314457 -0.0015402758605333269 -0.020948274303449633 -0.004679328606341954 -0.010992708183286994 -0.015457649831893801 0.0074351894622126198 0.0066740588004718946 -0.0032187252093065725 -0.0046161345102218553 0.010214471133232608 -0.00077612142108626683 0.0031326680798570302 -0.0023713640823900145 0.0080251840760373113 0.00098589046466880485 -0.0015536410709798742 -0.011173194913127038 -0.0026318541601797925 0.010930300952383473 0.0097435259677329505 0.0030226731961538462 -0.0062013493282531626 0.0053849068294852089 0.0031734736706110415 0.0023008771506372069
leaf_weight=147.4717885106802 214.33727127313614 113.35090887546539 217.45535525679588 122.66699403524399 301.78659379482269 119.59315745532513 163.85165692865849 315.77120035886765 157.97039057314396 112.38220256567001 217.21136920154095 619.96915858983994 2947.4533896446228 171.27873712778091 239.38887143135071 4078.3477712273598 389.99389588832855 281.76574958860874 447.88074642419815 575.99904298782349 3153.8882253617048 306.77493250370026 504.19236117601395 175.91460157930851 223.99949371814728 628.45086781680584 215.92369996011257 157.59777522087097 217.87636342644691 603.87586243450642
leaf_count=593 858 455 873 491 1208 479 669 1273 635 450 870 2482 11833 687 959 16363 1563 1129 1794 2308 12649 1231 2020 705 897 2518 866 631 872 2421
internal_value=-0.000156676 -0.000595723 0.00838393 -0.000339601 0.0112513 -0.000588075 -0.00775666 -0.0103005 -0.00168171 0.000437717 0.000235663 0.00496184 -0.00148363 0.00271888 0.00626336 -0.00180329 3.17644e-05 -0.00294478 0.000462665 0.00280961 -0.000319536 -0.0069959 0.000933092 0.00334379 0.00167651 -0.000292448 -0.00460832 -0.00127145 0.00831302 0.00434207
internal_weight=18144.4 17259.8 884.59 16666.9 667.135 15924.2 592.974 479.623 7714.03 8210.19 7995.85 742.636 7556.06 530.261 358.982 7025.8 7778.64 978.535 6800.1 1703.99 5096.12 588.541 1256.11 751.914 1942.23 1114.35 485.904 373.521 519.663 827.875
internal_count=72782 69236 3546 66839 2673 63866 2397 1942 30956 32910 32052 2973 30321 2125 1438 28196 31182 3923 27259 6827 20432 2360 5033 3013 7783 4465 1947 1497 2080 3318
is_linear=0
shrinkage=0.03


Tree=14
num_leaves=31
num_cat=0
split_feature=2 1 1 11 8 12 1 12 13 8 17 17 5 6 8 21 4 1 2 17 11 21 1 5 2 8 3 15 7 17
split_gain=78.5634 50.6829 39.6392 20.0315 21.0909 21.571 17.726 16.8257 11.8621 11.7283 11.0002 16.3561 13.2026 12.3145 10.9685 10.4155 13.6633 12.4377 10.54 10.3024 10.2027 9.95643 9.43152 9.26385 8.33632 9.11712 8.26365 7.95162 7.94914 7.86821
threshold=-0.00039396446990846984 -0.0056735470946128177 0.0059065728038988361 1454.8150000000003 1.3796576692313942 1029.6089038971211 -0.0025813536570430946 1399.5590851104073 1.0710944052576272 -0.64544820728401675 4.5000000000000009 1.5000000000000002 0.0016421494737724502 57.930816004366214 -0.14272435222910362 1.5000000000000002 0.002361100919084029 -0.0016769604490149412 0.0020065459902697262 5.5000000000000009 1101.2125000000003 5.5000000000000009 0.00058033393390255494 0.001210725771351801 -0.0010007173076672091 0.29217787597151196 -0.00084317032040476237 3.3247426925529902 0.030146414125397317 4.5000000000000009
decision_type=2 2 2 2 2 2 2 2 2 2 2 2 2 2 2 2 2 2 2 2 2 2 2 2 2 2 2 2 2 2
left_child=1 -1 3 4 5 -2 8 9 -3 19 11 20 22 24 -9 16 -7 -17 -18 -8 -11 -6 -12 -21 28 26 -26 -5 -13 -10
right_child=2 6 -4 27 21 15 7 14 29 10 12 13 -14 -15 -16 17 18 -19 -20 23 -22 -23 -24 -25 25 -27 -28 -29 -30 -31
leaf_value=0.018829333786072405 0.011701948541938709 0.011575962968964237 -0.016717658358313771 0.0079398467138603965 -0.015329862013750787 -0.0027230051845242758 0.0057772185189053716 0.011034459283129076 0.0068633678532419315 -0.002981080606806174 0.0045803628980725852 -0.0027016181590969815 -0.0030779326998769405 0.0039202092681509164 0.0016883193533023067 0.0049242777960955128 -0.0039920173576788679 -0.0014215471543640871 -0.017244347371527982 0.0068422162240333447 0.0035922775831694689 -0.0040299271254217277 -0.0029675639817400186 -0.0040928393819876646 0.0047420710296964853 -0.0085115592595803712 -0.0024901856694805411 -0.0016662205633332081 -0.0080967508525317759 -0.0034847599762976812
leaf_weight=162.45429681241512 108.32674618065357 270.81107239425182 155.92567692697048 273.3981582224369 144.45156608521938 1810.1002534329891 756.90089808404446 261.14813108742237 159.15232309699059 271.40810732543468 1203.2424640655518 617.2564764469862 321.60296422243118 245.33956901729107 206.8767613619566 286.35518103837967 114.14737063646317 7779.4240390062332 109.72936253249645 100.63178408145905 937.98897165060043 146.31008829176426 166.83437292277813 219.5577075779438 267.53145352005959 109.37414081394672 298.92676961421967 104.3887689858675 423.45252108573914 109.71679306030273
leaf_count=654 434 1084 638 1094 582 7265 3031 1045 637 1087 4817 2475 1289 983 828 1148 458 31228 442 403 3756 589 669 880 1073 439 1199 418 1698 439
internal_value=-0.000151913 0.0023061 -0.00173746 -0.00151981 -0.00176527 -0.00153605 0.00191493 0.00147159 0.00713886 0.0010365 0.000405367 -0.000633038 0.00236008 -0.00232781 0.00694766 -0.00168066 -0.00360238 -0.00119381 -0.0106019 0.0038691 0.00210347 -0.00972849 0.00364882 -0.000598776 -0.00323131 -0.000610098 0.000901427 0.00524854 -0.0049169 0.00258778
internal_weight=18142.8 7110.21 11032.6 10876.6 10498.8 10208.1 6947.75 6408.07 539.68 5940.05 4862.96 3171.28 1691.68 1961.88 468.025 10099.8 2033.98 8065.78 223.877 1077.09 1209.4 290.762 1370.08 320.189 1716.54 675.832 566.458 377.787 1040.71 268.869
internal_count=72782 28486 44296 43658 42146 40975 27832 25672 2160 23799 19485 12710 6775 7867 1873 40541 8165 32376 900 4314 4843 1171 5486 1283 6884 2711 2272 1512 4173 1076
is_linear=0
shrinkage=0.03


Tree=15
num_leaves=31
num_cat=0
split_feature=2 0 0 12 0 17 20 17 0 12 0 2 17 17 7 14 12 17 14 12 12 5 12 8 17 17 5 12 17 0
split_gain=72.9933 53.9121 44.169 20.0324 21.1434 16.5898 48.1522 21.9569 13.7891 17.7017 13.5424 18.6671 13.4023 23.566 27.7248 18.8874 12.7457 12.6777 13.6613 12.8248 12.3517 11.6692 13.2975 11.6201 14.2686 13.6585 14.2141 14.8983 14.0655 12.5235
threshold=-0.00037388419018896663 0.0072182824839392363 -0.0056897027986968704 1399.5590851104073 -0.0022765533508315628 -1.0000000180025095e-35 1.0000000180025095e-35 1.0000000180025095e-35 0.00028345340940213152 1317.4025660808854 -9.443762423015001e-05 0.0017410018017077757 4.5000000000000009 5.5000000000000009 0.7254299650757049 0.72750541040688288 1271.992551068214 6.5000000000000009 1.0105150320714129 1076.7507413454202 1334.3772944909576 0.00087241680974833608 1334.3772944909576 -0.64544820728401675 6.5000000000000009 4.5000000000000009 0.0013494727304674957 1292.0274974801493 1.5000000000000002 0.00056569848497438552
decision_type=2 2 2 2 2 2 2 2 2 2 2 2 2 2 2 2 2 2 2 2 2 2 2 2 2 2 2 2 2 2
left_child=2 5 -1 4 -4 6 10 8 9 -7 11 -2 20 15 17 -14 -10 18 -15 -19 -9 22 -21 24 -6 28 29 -28 -25 -27
right_child=1 -3 3 -5 23 7 -8 12 16 -11 -12 -13 13 14 -16 -17 -18 19 -20 21 -22 -23 -24 25 -26 26 27 -29 -30 -31
leaf_value=0.017794189599365167 -0.0075164563742570918 -0.022771189735485663 0.0066101197889637713 0.007769492189795793 0.0052995810297254064 0.003827387917365436 0.0044132874119599281 -0.0032764027081939187 0.0055331448354880202 0.019119008897868203 -0.0061173066432287605 -0.023894629806136332 0.0091321376828936013 -0.00032828822308918768 0.002477430302747476 -0.0013651528327817144 -0.0064634349770677146 -0.015166208423399927 -0.011819600650872161 0.0058040847994027134 8.4583331376603241e-05 -0.0074783432372320909 -0.0079908920371752762 0.0017034078394241132 -0.0039641774838471292 0.0053616515620577929 0.0016288826992529829 -0.0095713184899607687 -0.0023894678112833406 -0.0042486268833202209
leaf_weight=160.51547911763191 150.36828204989433 106.40860792994499 651.5986535102129 489.96478277444839 892.56748196482658 217.22173398733139 340.43898484110832 3762.7299501597881 170.40368974208832 101.15059576928616 487.62988854944706 113.10543148219585 404.10631836950779 1138.9769581407309 1220.1649639159441 245.11035333573818 147.97288307547569 120.41226686537266 100.74933369457722 162.13292066752911 1320.7561550736427 443.76774518191814 101.15027210116386 1205.90342707932 177.08652511239052 1059.4703207612038 350.82637357711792 151.7210004478693 2009.7094231694937 135.39366845786572
leaf_count=647 604 438 2608 1961 3574 870 1366 15105 683 405 1968 458 1620 4570 4898 984 593 484 405 651 5298 1783 406 4829 710 4241 1406 608 8060 543
internal_value=-5.30432e-05 -0.0016128 0.00226894 0.00191459 0.00147882 -0.00139984 -0.00490735 -0.00100135 0.00437282 0.00877733 -0.00915214 -0.0146678 -0.00138284 -6.4746e-05 -0.00110038 0.00514983 0 -0.00321963 -0.00128302 -0.00609795 -0.00240038 -0.00451318 0.000437279 0.000916429 0.00374964 0.000295899 0.00247451 -0.00173501 -0.000849862 0.0042575
internal_weight=18139.5 10854.8 7284.76 7124.24 6634.28 10748.3 1091.54 9656.81 636.749 318.372 751.104 263.474 9020.06 3936.57 3287.35 649.217 318.377 2067.19 1239.73 827.463 5083.49 707.051 263.283 5982.68 1069.65 4913.02 1697.41 502.547 3215.61 1194.86
internal_count=72776 43589 29187 28540 26579 43151 4396 38755 2551 1275 3030 1062 36204 15801 13197 2604 1276 8299 4975 3324 20403 2840 1057 23971 4284 19687 6798 2014 12889 4784
is_linear=0
shrinkage=0.03


Tree=16
num_leaves=31
num_cat=0
split_feature=2 0 0 12 0 17 0 17 2 0 0 0 12 0 12 21 17 17 7 14 12 10 3 0 8 17 17 17 15 8
split_gain=68.7069 50.9817 41.6551 18.8504 19.8964 15.6319 27.6097 20.6743 19.0926 18.9184 13.4408 12.982 16.6509 12.7923 11.9976 11.0235 10.9584 22.8203 22.2913 17.9371 11.3366 11.2866 24.4699 12.0904 10.9295 13.4297 12.8471 13.2367 12.0702 10.216
threshold=-0.00037388419018896663 0.0072182824839392363 -0.0056897027986968704 1399.5590851104073 -0.0022765533508315628 -1.0000000180025095e-35 -9.443762423015001e-05 1.0000000180025095e-35 0.0025090901817139692 0.0018286363692808529 -0.0012052641364501398 0.00028345340940213152 1317.4025660808854 -0.0011451391688570109 1271.992551068214 1.0000000180025095e-35 4.5000000000000009 5.5000000000000009 0.7254299650757049 0.72750541040688288 1334.3772944909576 1289.8192333513589 0.0035195241384181624 0.00026589851905543235 -0.64544820728401675 6.5000000000000009 4.5000000000000009 1.5000000000000002 1.799913173133167 -0.17425608710302773
decision_type=2 2 2 2 2 2 2 2 2 2 2 2 2 2 2 2 2 2 2 2 2 2 2 2 2 2 2 2 2 2
left_child=2 5 -1 4 15 6 8 11 13 -8 -9 12 -7 -2 -13 -4 20 19 -19 -18 -12 -20 23 -23 25 -6 27 -26 -28 -5
right_child=1 -3 3 29 24 7 9 10 -10 -11 16 14 -14 -15 -16 -17 17 18 21 -21 -22 22 -24 -25 26 -27 28 -29 -30 -31
leaf_value=0.017290097304132192 0.00049432807091454826 -0.022180283725681912 -0.00234158361772056 0.011589546052532684 0.0051400606245989395 0.0037126990595069821 0.0013771568061036557 0.0036613890690865712 -0.022880272822314751 -0.0092065625618662442 -0.0034061029353498543 0.0053669663385670936 0.018545534956776754 -0.013363465155284329 -0.0062724009045243608 0.0081305205959096363 0.0087801556137599244 -0.0034002757753540391 0.0043638153526288966 -0.0015987578836531874 -0.00010630259125739093 0.00032487210206397443 0.010153081064804935 -0.011028782344054118 0.0016522610312681833 -0.0038466272338595381 0.0042973834509643363 -0.0023181036435050081 -0.00095385500375598194 0.0027910700214428008
leaf_weight=160.27229167521 106.33448222279549 105.99902641773224 105.41325624287128 261.8043298125267 892.6891637891531 217.24450086057186 544.94672019779682 456.05324152112007 100.26645787060261 208.8956211656332 3597.7959050089121 170.43993897736073 101.1804833561182 130.53211185336113 147.93621344864368 546.16280651092529 390.51631820201874 1933.6978241205215 674.23894347250462 238.84974417090416 1279.8059497326612 150.937330275774 113.83748412132263 183.45419423282146 1205.965941131115 177.05427525937557 1086.7488911151886 2009.466707020998 610.73199199140072 228.1459067761898
leaf_count=647 427 438 422 1048 3574 870 2189 1827 407 848 14447 683 405 525 593 2186 1565 7766 2708 959 5134 605 457 736 4829 710 4351 8060 2447 913
internal_value=-5.15434e-05 -0.00156502 0.0022012 0.00185726 0.00143446 -0.00135825 -0.00476406 -0.000971436 -0.0118938 -0.00154411 -0.00134169 0.004243 0.00851614 -0.00710342 0 0.00641235 -0.0016103 -0.000370746 -0.00144607 0.00482119 -0.00254356 0.00190715 -0.00175632 -0.00587357 0.000888826 0.00363645 0.000286884 -0.000824282 0.00239977 0.00753711
internal_weight=18137.4 10853 7284.46 7124.18 6634.23 10747 1090.98 9655.99 337.133 753.842 9019.19 636.801 318.425 236.867 318.376 651.576 8563.13 3685.53 3056.17 629.366 4877.6 1122.47 448.229 334.392 5982.66 1069.74 4912.91 3215.43 1697.48 489.95
internal_count=72776 43589 29187 28540 26579 43151 4396 38755 1359 3037 36204 2551 1275 952 1276 2608 34377 14796 12272 2524 19581 4506 1798 1341 23971 4284 19687 12889 6798 1961
is_linear=0
shrinkage=0.03


Tree=17
num_leaves=31
num_cat=0
split_feature=2 2 14 17 10 11 17 17 2 21 21 17 17 7 10 14 21 13 14 8 17 11 14 5 4 11 2 4 17 10
split_gain=64.6672 37.5928 29.2021 19.3373 18.5747 17.5074 18.9789 21.1392 18.0358 13.8803 13.8648 12.5205 23.2387 20.8323 20.8085 14.5146 12.4663 11.335 11.1696 11.1504 11.0791 12.8936 12.6605 12.1867 10.8667 10.6618 10.5461 12.5584 19.9041 10.4016
threshold=-0.00037388419018896663 0.01041721465414547 -0.13400767891503332 1.0000000180025095e-35 1394.9106744152102 1470.0800000000002 -1.0000000180025095e-35 1.0000000180025095e-35 0.0015163524848280654 1.5000000000000002 5.5000000000000009 4.5000000000000009 5.5000000000000009 0.7254299650757049 1328.1094078729695 0.72373046918411266 1.5000000000000002 0.74644082048431393 0.31814193938466034 -0.17929880238559798 6.5000000000000009 1071.4525000000003 1.0105150320714129 0.00087241680974833608 0.0012622156335524817 1266.1325000000004 -0.0026076734586546464 0.0014226772650869697 -1.0000000180025095e-35 1323.9857438748254
decision_type=2 2 2 2 2 2 2 2 2 2 2 2 2 2 2 2 2 2 2 2 2 2 2 2 2 2 2 2 2 2
left_child=2 5 3 -1 10 6 8 17 -2 -5 26 18 15 20 -15 -13 -10 -8 -9 -6 22 -22 -14 29 -12 -19 27 -4 -29 -23
right_child=1 -3 4 9 19 -7 7 11 16 -11 24 12 13 14 -16 -17 -18 25 -20 -21 21 23 -24 -25 -26 -27 -28 28 -30 -31
leaf_value=0.021564125689892993 -0.001568327691350216 -0.017253953207380924 0.0072826175341357676 -0.0013951982170546384 0.012548019771560235 0.0058405092676810004 0.011379082848582063 0.0008880266825303585 -0.018530313103550165 0.012505293290280523 0.0014808058828339407 0.0086287953275869002 -0.00027217034735279466 0.0039896901425718265 -0.0061284368145437425 -0.00066849535907721638 -0.0068789410634768717 0.0058042327507551563 -0.0030650616059427439 0.0026817560385236335 -0.014878382836271848 0.005932102190992077 -0.011374677731164592 -0.0071836012765767879 0.0085072178261743486 -0.0037493100390215391 1.068193566907891e-05 0.0094546259801157329 -0.0008726748221414189 -0.0061939219914464438
leaf_weight=101.69819232821465 565.49647538363934 134.10567423701286 429.01517568528652 119.11230175197124 216.79373475909233 297.06317603588104 154.68893031775951 753.369818136096 107.12724642455578 135.57564404606819 405.62939803302288 392.37630611658096 1118.7458487004042 930.43603709340096 225.78858396410942 240.55987212061882 404.37180750072002 254.63780736923218 4175.4762727022171 205.91216903924942 118.96369162201881 154.93008308112621 100.1163579672575 440.8900570422411 398.91218148171902 175.91059765219688 4222.0214061141014 208.31375913321972 841.10588386654854 106.05197088420391
leaf_count=411 2271 549 1718 477 868 1189 619 3022 436 543 1625 1572 4490 3735 906 966 1638 1020 16768 824 479 622 403 1773 1598 705 16919 835 3369 426
internal_value=-4.99163e-05 -0.00151843 0.00213557 0.0105067 0.00170131 -0.00131853 -0.00152461 -0.00108758 -0.00529744 0.00596562 0.00130189 -0.0014579 -0.000166604 -0.00121084 0.00199726 0.00507603 -0.00937984 0.00442156 -0.00245774 0.00779495 -0.00303682 -0.00573388 -0.00120499 -0.00414363 0.00498954 0.00186651 0.00077802 0.00295771 0.0011701 0.000942514
internal_weight=18135.2 10851.1 7284.09 356.386 6927.7 10717 10419.9 9342.94 1077 254.688 6505 8757.7 3828.86 3195.92 1156.22 632.936 511.499 585.237 4928.85 422.706 2039.7 820.836 1218.86 701.872 804.542 430.548 5700.46 1478.43 1049.42 260.982
internal_count=72776 43589 29187 1431 27756 43040 41851 37506 4345 1020 26064 35162 15372 12834 4641 2538 2074 2344 19790 1692 8193 3300 4893 2821 3223 1725 22841 5922 4204 1048
is_linear=0
shrinkage=0.03


Tree=18
num_leaves=31
num_cat=0
split_feature=2 2 14 12 17 12 17 20 17 10 21 21 2 15 17 17 10 7 14 10 8 8 14 9 2 17 3 4 7 17
split_gain=60.8878 35.4898 27.5139 19.624 18.2725 16.5373 17.4351 37.7624 19.7576 15.8795 13.0748 12.4822 11.4484 11.5901 11.368 21.6797 20.7976 19.4231 13.7206 12.4589 11.2618 11.0639 10.4429 10.1207 13.1446 11.9119 10.945 11.9561 11.3178 10.0834
threshold=-0.00037388419018896663 0.01041721465414547 -0.13400767891503332 1399.5590851104073 1.0000000180025095e-35 1474.9625504867906 -1.0000000180025095e-35 1.0000000180025095e-35 1.0000000180025095e-35 1326.3224806827864 1.5000000000000002 5.5000000000000009 0.0037740519045967873 3.1463963318968484 4.5000000000000009 5.5000000000000009 1357.3864963638521 0.7254299650757049 0.72373046918411266 1075.802272295354 0.75450478723399905 -0.17425608710302773 0.31814193938466034 -4.8500853352959394 -0.0026076734586546464 6.5000000000000009 -0.0035690110419722694 0.0011442577142058339 -0.10953861564223642 6.5000000000000009
decision_type=2 2 2 2 2 2 2 2 2 2 2 2 2 2 2 2 2 2 2 2 2 2 2 2 2 2 2 2 2 2
left_child=2 5 4 11 -1 6 7 12 20 -9 -6 23 13 -2 22 18 17 19 -16 29 -8 -5 -10 -4 25 26 27 -25 -29 -17
right_child=1 -3 3 21 10 -7 8 9 14 -11 -12 -13 -14 -15 15 16 -18 -19 -20 -21 -22 -23 -24 24 -26 -27 -28 28 -30 -31
leaf_value=0.02096364742802968 -0.0087047955503797049 -0.016781748964620587 -0.006718606925827899 0.011987438251240518 -0.0013536868185356973 0.0056658609664052249 0.0063322735338236314 0.0079281399660439435 0.0008613812768496794 -0.0062936408660302211 0.012135077303157417 0.004725980617562805 -0.015995752323554439 0.0023168489606509393 0.0083246940683111264 -0.003084806272364648 -0.0079824266821319073 0.0029518838858173329 -0.00070931026338839237 -0.00098697832871305039 -0.0040547012051924325 0.0026915694997004828 -0.0029607586058831821 0.016861752665911861 8.8600121577846706e-05 -0.0017648639599404025 0.001972078192773296 0.0021843780883413501 0.013049352877832801 -0.013729837076185225
leaf_weight=101.5044538974762 493.30884592235088 133.77593655884266 158.66705812513828 244.69306752085686 119.11264634132385 298.08570766448975 470.26068437099457 222.63564395904541 753.40412059426308 101.3337040245533 135.55128139257431 799.10994155704975 158.84907375276089 101.02388480305672 392.73801966011524 208.16184063255787 359.94836965203285 1029.5244480967522 240.80013212561607 1464.9756509661674 114.74990414083004 227.90133126080036 4170.436461314559 111.15404878556728 4135.4158032685518 298.44884267449379 545.70703832805157 279.4241431504488 127.20764108002186 135.22219885885715
leaf_count=411 1988 549 636 980 477 1193 1883 894 3022 407 543 3201 651 408 1573 836 1445 4132 967 5885 460 912 16751 445 16572 1196 2185 1119 510 545
internal_value=-4.83593e-05 -0.00147352 0.00207224 0.00165077 0.0102006 -0.00127946 -0.00148016 -0.00509616 -0.00106104 0.0034279 0.00578676 0.00121534 -0.00878222 -0.00680541 -0.00141913 -0.000189292 -0.00119784 -0.000329506 0.00487163 -0.00220654 0.00426583 0.00755147 -0.00237283 0.000715942 0.000934432 0.00348977 0.00497875 0.00810873 0.00564377 -0.007348
internal_weight=18133.1 10849.2 7283.9 6927.73 356.168 10715.5 10417.4 1077.15 9340.22 323.969 254.664 6455.13 753.182 594.333 8755.21 3831.37 3197.83 2837.88 633.538 1808.36 585.011 472.594 4923.84 5656.02 5497.36 1361.94 1063.49 517.786 406.632 343.384
internal_count=72776 43589 29187 27756 1431 43040 41847 4348 37499 1301 1020 25864 3047 2396 35156 15383 12843 11398 2540 7266 2343 1892 19773 22663 22027 5455 4259 2074 1629 1381
is_linear=0
shrinkage=0.03


Tree=19
num_leaves=31
num_cat=0
split_feature=2 0 0 12 0 10 17 20 12 17 0 0 2 8 19 0 21 8 17 17 5 0 17 21 12 17 17 10 7 0
split_gain=57.3275 45.961 37.024 15.6807 17.7231 13.6971 14.7312 35.7545 16.0496 14.9973 11.7813 11.3097 15.7484 10.5182 10.7046 13.8212 10.45 9.92505 12.3457 12.0595 13.1365 12.2807 12.2605 11.1833 9.10266 8.46598 21.16 17.3111 15.6631 13.2161
threshold=-0.00037388419018896663 0.0072182824839392363 -0.0056897027986968704 1399.5590851104073 -0.0022765533508315628 1465.1592100553551 -1.0000000180025095e-35 1.0000000180025095e-35 1326.7251034501262 1.0000000180025095e-35 -0.0013016295455152173 -9.443762423015001e-05 0.0017410018017077757 0.75450478723399905 1.5000000000000002 7.7827069354169731e-05 1.0000000180025095e-35 -0.64544820728401675 6.5000000000000009 4.5000000000000009 0.0017879900315684934 0.00056569848497438552 1.5000000000000002 3.5000000000000004 1118.4740452895526 4.5000000000000009 5.5000000000000009 1357.3864963638521 0.7254299650757049 0.00056569848497438552
decision_type=2 2 2 2 2 2 2 2 2 2 2 2 2 2 2 2 2 2 2 2 2 2 2 2 2 2 2 2 2 2
left_child=2 5 -1 4 16 6 7 11 -9 13 -11 12 -2 14 15 -8 -4 18 -6 22 21 24 -19 -22 -21 -12 -27 28 -28 -29
right_child=1 -3 3 -5 17 -7 9 8 -10 10 25 -13 -14 -15 -16 -17 -18 19 -20 20 23 -23 -24 -25 -26 26 27 29 -30 -31
leaf_value=0.016266371174364636 -0.0068646926833457484 -0.021085676403481003 -0.0025230159899154881 0.0068694483344585921 0.0048461447337054394 0.0050689795983503289 0.0080207259182717115 0.0084605159570896229 -0.005543682001826305 0.003714650651942846 -0.0024249550285967421 -0.0055840621422561833 -0.022002412923042499 -0.0042348384574047845 0.0094610103729296149 -0.0068075240804707574 0.0076742421347979423 0.0015188845647122469 -0.0037697349935084459 0.0088595277585807163 -0.011155660969059214 -0.0036318326787001154 -0.0023016832628595168 0.0013161744480367358 0.0029432448064371413 0.0045657605705867691 -0.0024463419508904179 -0.0028840466615762238 0.0023543048218878644 -0.01500452393888416
leaf_weight=159.6101062297821 149.61913765966892 105.11707580089569 105.38086621463299 489.70437064766884 892.82567211985588 299.60867421329021 111.65337814390659 209.84363606572151 111.0586611777544 391.38522382080555 4764.336251065135 482.46373642981052 111.46585540473461 124.37379631400108 269.91040612757206 112.34429134428501 546.00878974795341 1206.0847434699535 177.02580092847347 320.08131043612957 109.725331351161 191.22033555805683 2009.3756753504276 150.94203549623489 925.67117635905743 614.89926092326641 1693.432118833065 202.79785560071468 954.00281482934952 139.00106751918793
leaf_count=647 602 438 422 1961 3574 1199 447 842 446 1568 19137 1952 455 499 1081 450 2186 4829 710 1281 440 767 8060 605 3705 2465 6806 814 3829 559
internal_value=-4.67811e-05 -0.00142985 0.00201084 0.00168711 0.00130134 -0.00123417 -0.00141692 -0.00476375 0.00356514 -0.00103498 -0.00135504 -0.00837845 -0.013444 0.00347034 0.00544556 0.000519863 0.00600021 0.000786333 0.0034043 0.000212629 0.00225987 0.00338945 -0.000863939 -0.00389897 0.00448128 -0.00159435 -0.000491842 -0.00153841 -0.00071053 -0.00788629
internal_weight=18131 10847.3 7283.66 7124.05 6634.34 10742.2 10442.6 1064.45 320.902 9378.14 8759.85 743.549 261.085 618.282 493.908 223.998 651.39 5982.95 1069.85 4913.1 1697.64 1436.97 3215.46 260.667 1245.75 8368.47 3604.13 2989.23 2647.43 341.799
internal_count=72776 43589 29187 28540 26579 43151 41952 4297 1288 37655 35178 3009 1057 2477 1978 897 2608 23971 4284 19687 6798 5753 12889 1045 4986 33610 14473 12008 10635 1373
is_linear=0
shrinkage=0.03


Tree=20
num_leaves=31
num_cat=0
split_feature=2 2 17 15 10 0 0 0 2 7 17 17 2 4 11 5 6 8 2 0 7 7 8 5 11 15 8 0 15 8
split_gain=59.8734 39.4139 32.3334 29.226 23.2766 20.4192 16.0265 15.4213 14.0854 13.467 13.1431 21.8893 18.3972 14.2579 13.738 13.5156 12.8186 12.5651 12.4507 13.252 10.8828 13.275 14.9351 12.2324 10.6169 10.9719 12.472 12.7637 10.2429 10.1112
threshold=-0.0026076734586546464 0.01041721465414547 -1.0000000180025095e-35 2.9029649674860649 1465.1592100553551 -0.0013713292214180127 -0.00035637284114709792 0.0014162636639178281 0.0029006796146091589 1.7014988897473133 4.5000000000000009 5.5000000000000009 0.0011739010201630153 0.0013879414052989857 1287.3225000000004 0.0014499328412338616 52.890571251174613 0.018143697207929081 -0.00036309502244591391 -0.00048350055414214188 -0.31251649099419859 -2.1521405356699002 0.062797765652471985 0.00049071466567954844 1340.2075000000002 5.1351866727370554 -0.32287696254450182 0.0041268922177154091 1.1296355341695259 -0.63151012267435791
decision_type=2 2 2 2 2 2 2 2 2 2 2 2 2 2 2 2 2 2 2 2 2 2 2 2 2 2 2 2 2 2
left_child=2 4 3 -1 5 8 -4 9 29 10 13 16 14 20 17 18 -12 -13 19 -16 21 22 -7 -23 25 26 -9 -28 -19 -2
right_child=1 -3 6 -5 -6 7 -8 24 -10 -11 11 12 -14 -15 15 -17 -18 28 -20 -21 -22 23 -24 -25 -26 -27 27 -29 -30 -31
leaf_value=0.0043280644331665351 0.010951485796217039 -0.016511705770138392 0.0050687470307544183 0.021716487553502226 0.0068221316525371115 -0.00034998515972659938 -0.0015691535504693606 -0.0084561203695596911 -0.0074840590881902671 0.0015064747472757038 0.0084323326399490771 0.00019620486161976057 -0.0048511386845387144 0.0010580787540006031 -0.0037208609113213642 -0.012163557813986337 -0.00058804555429244683 6.5940476937937219e-05 -0.0037923012146527722 0.0068767810070304563 -0.0037243635540490094 -0.0087591456131207984 -0.011292565613053309 0.00088208121860052261 -0.008649902123139026 0.006951300312001832 -0.00055050047800131962 -0.0092809053945890028 0.0094143520775928531 0.0028138046826333414
leaf_weight=174.87691608071327 160.83612698316574 137.84152325987816 1123.1938211470842 178.6508055627346 384.77174550294876 241.93581260740757 457.03475254774094 314.04320430755615 103.878483325243 2298.0018892586231 427.44418044388294 661.62187354266644 716.37668332457542 1224.6261989921331 165.38086704909801 100.93196068704128 207.25112393498421 156.79726096987724 529.66303484141827 287.15383213758469 2971.3390175253153 126.34030568599701 213.39542588591576 1680.1697084456682 297.36950741708279 102.43865410983562 1102.6154667884111 174.53082405030727 343.22620403766632 1006.6853584349155
leaf_count=702 644 568 4499 721 1540 970 1831 1263 420 9219 1711 2652 2880 4914 662 405 831 629 2126 1150 11931 507 857 6743 1198 414 4436 711 1376 4033
internal_value=3.58717e-06 -0.000593474 0.00499139 0.0131939 -0.000454366 -0.000635065 0.00313966 -0.000958921 0.00300445 -0.000562383 -0.00103686 0.000413282 -0.000666344 -0.0018466 0.000664039 -0.00175698 0.00546696 0.0029339 -0.00066105 0.00297109 -0.00252927 -0.000951707 -0.00552471 0.00019504 -0.0034099 -0.00247643 -0.00309679 -0.00176163 0.0065188 0.00395609
internal_weight=18070.4 16136.7 1933.76 353.528 15998.8 15614.1 1580.23 14342.7 1271.4 12351.7 10053.7 3595.85 2961.15 6457.81 2244.78 1083.13 634.695 1161.65 982.198 452.535 5233.18 2261.84 455.331 1806.51 1991 1693.63 1591.19 1277.15 500.023 1167.52
internal_count=72543 64790 7753 1423 64222 62682 6330 57585 5097 49563 40344 14422 11880 25922 9000 4343 2542 4657 3938 1812 21008 9077 1827 7250 8022 6824 6410 5147 2005 4677
is_linear=0
shrinkage=0.03


Tree=21
num_leaves=31
num_cat=0
split_feature=2 2 1 10 1 1 2 7 13 15 2 12 15 8 1 8 13 5 1 15 6 1 1 21 4 13 2 1 8 16
split_gain=56.3622 37.2081 28.7352 21.9059 19.2171 14.5224 13.2656 12.6735 16.7281 16.1492 15.5107 10.7721 10.4568 11.6187 11.7924 9.51394 9.44859 9.40364 7.80623 7.71402 7.58755 7.47488 8.83003 7.00519 11.2987 15.535 9.35725 13.4464 11.6282 7.82909
threshold=-0.0026076734586546464 0.01041721465414547 -0.0056735470946128177 1465.1592100553551 -0.0013703893791610631 0.0014172670389275279 0.0029006796146091589 1.7014988897473133 1.7329446526236414 3.5933490719163808 -0.00087298123090345781 1350.2780460086299 5.1351866727370554 -0.32287696254450182 0.0041354195638559918 -0.63151012267435791 0.50892071890132573 0.0029388190392931122 -7.2735208342999944e-05 3.6517106737311127 60.424120011432045 0.00028349358611579062 0.00093000644673946209 1.5000000000000002 0.00055172069499645796 0.63133724126105684 0.00033395951264747486 7.2199560429475631e-05 -0.071772395150806287 2.5000000000000004
decision_type=2 2 2 2 2 2 2 2 2 2 2 2 2 2 2 2 2 2 2 2 2 2 2 2 2 2 2 2 2 2
left_child=2 3 -1 4 6 7 15 23 9 20 -10 12 13 -7 -15 -2 -4 18 -12 -5 -9 -22 -23 29 25 26 27 -25 -28 -6
right_child=1 -3 16 19 5 11 -8 8 10 -11 17 -13 -14 14 -16 -17 -18 -19 -20 -21 21 22 -24 24 -26 -27 28 -29 -30 -31
leaf_value=0.017708213057383092 0.010624348590988587 -0.016062997070837883 0.012086121317804581 0.009136958624832275 -0.0009425000499878656 -0.0081353040480792727 -0.0072662511157332811 -0.0010764151135899157 0.0071338337543319181 0.014366034786626429 -0.01598851262736992 -0.0088052825016133457 0.0069285844070987737 -0.00056361969626263859 -0.0089173126898681298 0.0027293158009745687 0.0031978373976070252 -5.1551639094211879e-05 -0.0049962111185635726 -0.00038797976290196333 0.0053246376702860464 -0.0020703771003563096 0.0067398268925646602 -0.0012763897419116425 0.00020817577314028368 -0.0069781398302477191 -0.010576731746148557 0.0068005035119543551 -0.0012469095732465438 -0.0042197533466008623
leaf_weight=144.2395920753479 160.84544003009796 137.47481456398964 115.88506814837456 284.36617791652679 1602.5902032256126 318.344836845994 103.81347696483135 473.85819667577744 100.63587059080601 102.46097451448441 100.88181440532207 277.33127395808697 99.778855487704277 1118.9583117961884 176.02426762878895 1006.7429820150137 1673.32158626616 157.39842326939106 152.40399597585201 100.40183632075787 719.84442690014839 347.00731341540813 143.67870622873306 633.16353337466717 5290.5352790504694 505.5576750934124 163.24481412768364 260.25963555276394 468.13253229856491 1129.2289616763592
leaf_count=587 644 568 464 1138 6430 1281 420 1899 403 411 405 1118 403 4502 718 4033 6702 632 612 402 2887 1393 577 2539 21232 2030 656 1044 1882 4531
internal_value=3.3925e-06 -0.000575889 0.00484316 -0.000440867 -0.000616204 -0.000930435 0.00291445 -0.000545608 0.00146119 0.0028347 -0.00330553 -0.00330932 -0.00240622 -0.00299678 -0.0017167 0.00383792 0.00378833 -0.00591119 -0.00947901 0.00661806 0.00211624 0.00337824 0.000487309 -0.00100598 -0.000519421 -0.00242188 -0.000897812 0.00106466 -0.0036958 -0.00230373
internal_weight=18068.4 16135 1933.45 15997.5 15612.7 14341.3 1271.4 12350.9 2298.17 1786.85 511.32 1990.44 1713.11 1613.33 1294.98 1167.59 1789.21 410.684 253.286 384.768 1684.39 1210.53 490.686 10052.7 7320.89 2030.36 1524.8 893.423 631.377 2731.82
internal_count=72543 64790 7753 64222 62682 57585 5097 49563 9219 7167 2052 8022 6904 6501 5220 4677 7166 1649 1017 1540 6756 4857 1970 40344 29383 8151 6121 3583 2538 10961
is_linear=0
shrinkage=0.03


Tree=22
num_leaves=31
num_cat=0
split_feature=2 0 0 11 17 20 0 0 2 0 12 21 17 8 7 9 6 3 13 5 11 2 11 17 8 8 3 17 21 15
split_gain=53.3721 35.7378 31.2619 22.5011 16.6878 44.4446 21.2267 13.0022 12.969 14.2353 12.4146 12.2371 12.1481 17.623 13.2985 12.1238 18.9678 12.839 11.6034 11.5477 10.4366 10.8646 17.909 19.8088 16.0044 12.4813 11.7888 10.187 9.8091 12.059
threshold=-0.0013795349818764289 0.0072182824839392363 -0.0056897027986968704 1470.0800000000002 -1.0000000180025095e-35 1.0000000180025095e-35 -0.0011451391688570109 -7.2737853676571143e-05 0.0017793556748439967 -0.0010456248094458638 1329.4434971060039 5.5000000000000009 1.0000000180025095e-35 0.6695666566809737 1.7931765866831599 3.1594310662678482 45.628185332103079 -0.0023625476345290326 1.7329446526236414 0.0029388190392931122 1075.1375000000003 0.0011739010201630153 1287.3225000000004 4.5000000000000009 -0.48475093219960935 0.26798931043127988 0.0021555847699122892 1.5000000000000002 1.5000000000000002 2.9029649674860649
decision_type=2 2 2 2 2 2 2 2 2 2 2 2 2 2 2 2 2 2 2 2 2 2 2 2 2 2 2 2 2 2
left_child=2 3 -1 4 5 7 -6 8 9 -2 -7 15 13 -8 20 16 28 -17 -16 -20 -14 22 23 -22 -25 26 -23 -18 -4 -30
right_child=1 -3 11 -5 6 10 12 -9 -10 -11 -12 -13 14 -15 18 17 27 -19 19 -21 21 25 -24 24 -26 -27 -28 -29 29 -31
leaf_value=0.016494682476220719 0 -0.018101334299061893 0.0010336981187650815 0.0068118870388815221 0.0038625197535439183 0.0075187231495574417 0.0054884069840450177 -0.0049061582158287861 -0.020808160862935476 -0.014755137861101478 -0.0035213147757297081 0.0077906022530569163 -0.0041550742539621247 -0.0062886919476201446 0.0022812140127080713 0.016024784364494046 0.0023418893939565729 0.0020041270631342405 -0.0071732257021694277 0.0024959301340410989 -0.00073625057930012841 -0.0032767729547371204 -0.002164312783404634 -0.0062206570367912264 0.0060927960495306219 -0.000628751128129108 -0.010237619324918313 -0.0039390924616457971 0.0034057118591716167 0.011110575713300982
leaf_weight=149.84820640087128 107.15911151468754 106.45298324525356 1074.3459515571594 346.04777650535107 896.48951761424541 281.03921295702457 533.33039581775665 532.03815916180611 113.96795402467251 134.90776726603508 132.9709714949131 363.09450516104698 1304.5284663885832 143.55236786603928 1540.7339422255754 109.64149801433086 345.53196497261524 132.13762521743774 266.81154043972492 186.39713388681412 1608.7733666449785 761.09971645474434 2864.5043719410896 104.98154667019844 847.4107707887888 978.08253926038742 313.9463819861412 692.63068646192551 858.0964959859848 236.1099067479372
leaf_count=611 430 447 4304 1385 3591 1127 2136 2152 467 543 534 1454 5242 576 6182 439 1383 529 1072 749 6460 3060 11495 421 3397 3935 1263 2776 3437 946
internal_value=3.13501e-06 -0.000860188 0.00308034 -0.000726724 -0.000919384 -0.00415018 -0.00057725 -0.00793731 -0.0123984 -0.00830802 0.00393682 0.00254485 -0.000926357 0.00296302 -0.00117228 0.00198607 0.0014905 0.00846379 0.00103446 -0.0031667 -0.00167501 -0.00123991 -0.000532947 0.00128591 0.00471466 -0.00309967 -0.00533112 -0.00183391 0.00308905 0.0050906
internal_weight=18066.7 14105.2 3961.44 13998.8 13652.7 1302.08 12350.6 888.073 356.035 242.067 414.01 3811.59 11454.2 676.883 10777.3 3448.49 3206.72 241.779 1993.94 453.209 8783.33 7478.8 5425.67 2561.17 952.392 2053.13 1075.05 1038.16 2168.55 1094.21
internal_count=72543 56664 15879 56217 54832 5253 49579 3592 1440 973 1661 15268 45988 2712 43276 13814 12846 968 8003 1821 35273 30031 21773 10278 3818 8258 4323 4159 8687 4383
is_linear=0
shrinkage=0.03


Tree=23
num_leaves=31
num_cat=0
split_feature=2 0 0 11 17 20 0 16 5 10 21 17 8 7 11 4 10 7 10 7 17 12 7 7 17 2 16 17 8 7
split_gain=50.2629 33.789 29.5155 21.1786 15.7289 41.8752 19.975 13.2634 12.9593 12.4093 11.5105 11.4288 16.6378 12.6593 11.3682 9.50125 9.25997 10.5049 11.0878 9.85851 11.5626 12.6803 8.52328 14.5135 15.2275 8.46898 12.7993 11.796 9.17056 16.2171
threshold=-0.0013795349818764289 0.0072182824839392363 -0.0056897027986968704 1470.0800000000002 -1.0000000180025095e-35 1.0000000180025095e-35 -0.0011451391688570109 3.5000000000000004 0.0022745589843770832 1326.3224806827864 5.5000000000000009 1.0000000180025095e-35 0.77299339626937036 1.3719987214531104 1387.3025000000002 0.00063797993363372914 1072.3601379107547 1.0059174708712819 1265.3917635146775 0.46218290971876291 6.5000000000000009 1035.4118544578771 2.5354141989483883 0.70679525730179205 1.5000000000000002 0.0011280957465751309 1.0000000180025095e-35 4.5000000000000009 0.01376134867571588 -0.28090745840870562
decision_type=2 2 2 2 2 2 2 2 2 2 2 2 2 2 2 2 2 2 2 2 2 2 2 2 2 2 2 2 2 2
left_child=2 3 -1 4 5 7 -6 8 -2 -7 14 12 -8 16 22 -15 19 18 25 20 21 -13 23 -4 -25 27 -27 -18 29 -29
right_child=1 -3 10 -5 6 9 11 -9 -10 -11 -12 13 -14 15 -16 -17 17 -19 -20 -21 -22 -23 -24 24 -26 26 -28 28 -30 -31
leaf_value=0.016039013499980437 -0.0077244647766024251 -0.017631988223548698 0.0020256081351305473 0.00660834142358029 0.0037464072450825942 0.0072192064073307079 0.00505965917631489 -0.015117271473790871 0.002757888547575465 -0.0040377906206565065 0.0075574723718218346 0.0046262256530179126 -0.0072274341477547481 0.0037383636949935486 0.008072621542315743 -0.00037969778856622856 -0.0002269026162009302 -0.0050386122549214317 -0.0019997046473658846 0.00071192764498090636 -0.013693866281117222 -0.0057482878324170671 0.0064810482465730082 0.0040415845683379852 -0.0063835434573197005 -0.010278992039539464 -0.00025148101663798256 -0.0052557277318076578 0.0086212116240463738 0.0069160597594301477
leaf_weight=149.51572808623314 584.38088020682335 106.04098071157932 2328.59813593328 346.03625324368477 896.57585150003433 290.32658682763577 558.08075904846191 176.17470705509186 126.74630220234394 123.74176630377769 363.09702332317829 122.34600938856602 118.8102753162384 670.23273329436779 251.22431124746799 2007.7847080379725 1088.5269270837307 613.7718850672245 3606.6140739321709 288.57357884943485 135.89725315570831 706.06692788004875 275.53714734315872 178.35976429283619 414.74846987426281 137.1485875248909 691.60133312642574 170.57602706551552 308.60168056190014 228.58059558272362
leaf_count=611 2362 447 9328 1385 3591 1164 2235 714 516 497 1454 491 477 2689 1007 8061 4371 2465 14481 1160 548 2837 1103 714 1662 552 2784 684 1237 916
internal_value=2.95365e-06 -0.000834897 0.00298932 -0.000705322 -0.000892282 -0.00402987 -0.000560142 -0.00770891 -0.00583385 0.00381736 0.00246942 -0.000898873 0.00287338 -0.00113745 0.0019273 0.000646349 -0.0017292 -0.00129162 -0.000919417 -0.00410508 -0.00556137 -0.00419429 0.00143737 0.000954527 -0.00322172 0.000559306 -0.00193938 0.00172091 0.00473388 0.00167693
internal_weight=18064.3 14103.2 3961.08 13997.2 13651.2 1301.37 12349.8 887.302 711.127 414.068 3811.56 11453.2 676.891 10776.3 3448.47 2678.02 8098.3 6845.42 6231.65 1252.88 964.31 828.413 3197.24 2921.71 593.108 2625.04 828.75 1796.29 707.758 399.157
internal_count=72543 56664 15879 56217 54832 5253 49579 3592 2878 1661 15268 45988 2712 43276 13814 10750 32526 27490 25025 5036 3876 3328 12807 11704 2376 10544 3336 7208 2837 1600
is_linear=0
shrinkage=0.03


Tree=24
num_leaves=31
num_cat=0
split_feature=2 2 17 15 0 10 10 0 8 17 0 0 3 8 11 2 6 8 15 15 0 6 9 4 14 15 6 4 7 7
split_gain=47.9657 33.6821 29.229 26.7647 18.5936 24.8361 17.9209 15.3032 15.2624 14.3498 14.714 13.7316 12.2722 10.3585 10.1643 10.0924 12.2474 10.2361 9.65564 10.6391 9.87012 8.72051 8.25864 8.67126 17.0214 9.28837 12.523 8.16797 8.03346 13.3801
threshold=-0.0026076734586546464 0.01041721465414547 -1.0000000180025095e-35 2.9029649674860649 0.0018286363692808529 1465.1592100553551 1315.9594752018043 0.0010853134924034146 -0.60756037902664739 3.5000000000000004 -0.0012662236602155495 8.8028169241463961e-05 -0.002177750776508391 0.49132835742115855 1190.8375000000003 0.00033395951264747486 42.473819788560895 -0.062149251848065516 1.7334337491982474 1.2878947769242475 -0.00030110279166605561 62.39925378376703 3.5451476334480541 0.0019180765618658435 0.087879756446449228 2.5579547409186474 44.890346119248427 0.00058665885319855737 1.5810297381227658 -0.31251649099419859
decision_type=2 2 2 2 2 2 2 2 2 2 2 2 2 2 2 2 2 2 2 2 2 2 2 2 2 2 2 2 2 2
left_child=2 4 3 -1 5 8 -6 22 11 12 13 -2 -10 -11 -13 16 18 27 19 -12 -21 -7 23 24 -4 26 -26 -17 29 -14
right_child=1 -3 7 -5 6 21 -8 -9 9 10 15 14 28 -15 -16 17 -18 -19 -20 20 -22 -23 -24 -25 25 -27 -28 -29 -30 -31
leaf_value=0.0037980330976766664 0.0053599228198931426 -0.015311247192635833 0.0091914120830433911 0.020460596195939981 -0.0019514471450754844 0.0040348202339860742 -0.010331818971268444 -0.0082608850369279129 -0.0055168862135310292 0.002840814167103912 -0.0039544212088448178 -0.0064353869441398509 7.0211098809895415e-05 0.012503627041807895 0.0022607787470283196 -0.0099291299773479631 0.0024174418938088362 -0.00020733071304179372 -0.0077901793193722721 -0.0019458830263694949 0.010082732332866721 0.014071874333906449 0.011590332981025952 0.00025216502645024206 0.0037418670552848664 0.0074971485257255572 -0.010131168083816231 -0.0024970657990592061 0.00066859642188836401 -0.003169258676752633
leaf_weight=174.69349227845669 773.95519554615021 136.64571987092495 405.10662008821964 177.82599280774593 1129.866125524044 213.07495111227036 289.95644570887089 105.03817400336266 628.71643269062042 502.61788740754128 281.55747875571251 190.69977207481861 2022.7739557027817 126.33733573555946 324.17144170403481 182.162632599473 2054.7903679609299 1895.2642417401075 195.57481805980206 109.5903468132019 132.98462282121181 128.94026193022728 105.84383824467659 630.49631756544113 112.64659316837788 102.86575390398502 117.87123937904835 524.90987481176853 1660.9576380103827 2624.1144004166126
leaf_count=702 3101 568 1622 721 4563 853 1171 421 2521 2012 1128 765 8123 506 1300 732 8235 7616 784 439 533 516 424 2528 451 412 472 2109 6669 10546
internal_value=2.83784e-06 -0.000531527 0.00446891 0.0122799 -0.00040336 -8.29149e-05 -0.00367951 0.00270988 -0.000276182 -0.00058724 0.000484388 0.00283385 -0.00151717 0.00482235 -0.000937291 -2.1058e-05 0.00123466 -0.00136557 -0.0021201 0 0.00460119 0.00789253 0.00350646 0.00286249 0.00506746 0 -0.0033002 -0.00444429 -0.00111532 -0.00175619
internal_weight=18062 16129.7 1932.39 352.519 15993 14573.2 1419.82 1579.87 14231.2 12942.4 6005.79 1288.83 6936.56 628.955 514.871 5376.83 2774.5 2602.34 719.707 524.132 242.575 342.015 1474.83 1368.99 738.49 333.384 230.518 707.073 6307.85 4646.89
internal_count=72543 64790 7753 1423 64222 58488 5734 6330 57119 51953 24094 5166 27859 2518 2065 21576 11119 10457 2884 2100 972 1369 5909 5485 2957 1335 923 2841 25338 18669
is_linear=0
shrinkage=0.03


Tree=25
num_leaves=31
num_cat=0
split_feature=2 2 17 15 11 17 20 0 0 4 0 0 9 4 9 16 2 17 21 0 21 8 5 16 17 14 2 11 0 11
split_gain=46.1654 40.7364 28.8356 21.728 19.5265 19.1239 32.3566 17.6183 16.9482 19.7549 16.3403 12.4602 12.4368 19.4542 12.4425 12.0239 11.4971 10.9771 9.26945 9.01238 8.70489 8.43724 10.3945 10.9062 12.1326 12.3692 19.6144 8.4186 8.33796 8.19144
threshold=0.01041721465414547 -0.0023043627392589357 -1.0000000180025095e-35 2.9029649674860649 1426.1675000000002 -1.0000000180025095e-35 1.0000000180025095e-35 -1.0000000180025095e-35 0.00017349815995502859 0.001007973143543921 -0.0016783681211491785 7.7827069354169731e-05 0.48676735839829227 0.0018574702702284171 3.0150059967224832 1.0000000180025095e-35 0.0013110297672612738 3.5000000000000004 1.5000000000000002 -0.00076094094076404023 3.5000000000000004 -0.3897121180374164 0.001424837743607783 1.0000000180025095e-35 1.5000000000000002 0.6706950392429879 0.00072694964921549154 1208.7025000000003 0.00026589851905543235 1294.4825000000003
decision_type=2 2 2 2 2 2 2 2 2 2 2 2 2 2 2 2 2 2 2 2 2 2 2 2 2 2 2 2 2 2
left_child=1 2 3 -1 5 6 7 10 9 11 -3 17 13 -4 19 -6 -9 -7 -15 -14 -10 -11 23 -23 -25 -26 -27 -18 -17 -24
right_child=-2 4 12 -5 15 8 -8 16 20 21 -12 -13 14 18 -16 28 27 -19 -20 -21 -22 22 29 24 25 26 -28 -29 -30 -31
leaf_value=0.0043822306849828326 -0.017414290511726885 -0.0028578535129778057 0.0077110456221118348 0.018663538395155471 -0.0046631329008623486 -0.0026507820219090561 0.0027736286336762944 0.00015376436050763576 -0.0025490658155869618 0.0057710278060245767 -0.015848460451141879 0.0038450228262814461 4.5219174287617868e-05 -0.0051659857932038929 0.0060512590877954894 0.009225395672284576 -0.0022395189198760952 0.0004703447060312598 0.0028814700979256282 -0.007948161004013847 -0.0002620241034359398 0.010831296436469543 0.0015650191592027831 0.011842922933884999 -0.0027393987788849701 0.014080975354056497 -0.0016097148346595038 -0.013034093429873866 0.0020728359807696524 -0.0035612540032249861
leaf_weight=203.94094443321228 134.829660192132 132.25908981263638 648.03298291563988 187.38249737024307 108.59200990200043 2065.8301608711481 448.49812582135201 329.51735159754753 3172.3287307471037 602.80251348018646 276.48537810146809 510.50675949454308 305.20191417634487 195.50647076964378 172.97349418699741 337.78355294466019 124.58258804678917 1977.4424763470888 372.61103609204292 211.93807159364223 2867.5429838001728 181.12253978848457 989.83280767500401 108.06001235544682 353.54587244987488 131.81701748073101 152.20722791552544 145.74925461411476 271.26157024502754 390.10800954699516
leaf_count=819 562 535 2595 761 435 8293 1799 1325 12751 2415 1118 2049 1223 784 693 1353 509 7927 1494 849 11523 726 3969 433 1417 528 611 598 1087 1564
internal_value=8.80628e-06 0.000141289 0.00387161 0.0112891 -0.000404645 -0.000637521 -0.00390234 -0.00688566 -0.000283848 0.000670866 -0.0116989 -0.000560161 0.00233594 0.00416228 -0.000862176 0.00442327 -0.0035669 -0.00112089 8.15287e-05 -0.00321075 -0.00146596 0.00260229 0.00176556 0.00422154 0.0025835 0.000974569 0.00564364 -0.00814128 0.00607294 0.000103435
internal_weight=18110.3 17975.5 2297.59 391.323 15677.9 14960.2 1457.09 1008.59 13503.1 7463.28 408.744 4553.78 1906.26 1216.15 690.113 717.637 599.849 4043.27 568.118 517.14 6039.87 2909.5 2306.69 926.753 745.63 637.57 284.024 270.332 609.045 1379.94
internal_count=72745 72183 9218 1580 62965 60090 5884 4085 54206 29932 1653 18269 7638 4873 2765 2875 2432 16220 2278 2072 24274 11663 9248 3715 2989 2556 1139 1107 2440 5533
is_linear=0
shrinkage=0.03


Tree=26
num_leaves=31
num_cat=0
split_feature=2 2 17 15 12 17 20 0 0 8 0 17 17 11 7 9 13 2 9 16 2 7 12 11 2 17 17 16 21 9
split_gain=43.6029 38.353 27.1897 20.5192 20.2205 17.8621 30.1821 16.7225 16.4705 15.4265 15.4139 12.3984 17.3686 13.8618 12.9225 11.6982 17.2586 11.7967 11.7107 11.1242 10.9701 10.8808 15.9144 10.7046 10.2559 8.6755 13.4658 12.2376 13.1405 11.2721
threshold=0.01041721465414547 -0.0023043627392589357 -1.0000000180025095e-35 2.9029649674860649 1430.3758647168252 -1.0000000180025095e-35 1.0000000180025095e-35 -1.0000000180025095e-35 0.00017349815995502859 -0.67276077629757525 -0.0016783681211491785 3.5000000000000004 1.5000000000000002 1338.5275000000004 1.8613078210548795 0.48676735839829227 1.1464703588813137 -0.0035778228764314908 3.0150059967224832 1.0000000180025095e-35 0.0013110297672612738 1.4467843094581669 1314.3347830241107 1220.1900000000003 0.00038730042219381483 5.5000000000000009 4.5000000000000009 1.5000000000000002 4.5000000000000009 -0.55368361445483749
decision_type=2 2 2 2 2 2 2 2 2 2 2 2 2 2 2 2 2 2 2 2 2 2 2 2 2 2 2 2 2 2
left_child=1 2 3 -1 5 6 7 10 9 -7 -3 12 13 -11 25 16 -4 -18 -17 -6 -9 -14 24 -16 -23 26 27 28 -13 -28
right_child=-2 4 15 -5 19 8 -8 20 -10 11 -12 14 21 -15 23 18 17 -19 -20 -21 -22 22 -24 -25 -26 -27 29 -29 -30 -31
leaf_value=0.0042519720282245006 -0.016951964866564168 -0.0027732761031836421 0.0071886334444977067 0.01814073775436964 -0.0039904090466195436 0.0056986211448699581 0.0026461521854142162 0.00019332139356298265 -0.0014535647483703939 0.0004295959724733531 -0.015398482013163645 0.00079041164959268604 -0.0037493351102337725 0.0089648394031102835 0.00072371653072228503 -0.0031143026544733494 -0.0032068970689584073 0.0062036431881522611 0.0058713236096908719 0.006144420896953968 -0.0079101038814717063 0.0080555204707421207 -0.0065630944528274103 0.010716146519836498 -0.002145218558435451 -0.0003499449696859551 0.015185188228233393 -0.0022702450277047679 0.013888220395502054 0.0038802712414211242
leaf_weight=203.91403691470623 134.38569130003452 132.23472738265991 683.52728876471519 187.03334447741508 113.57175244390965 507.57254666090012 450.29664693772793 329.7704654186964 6035.3015462309122 1029.4699458777905 276.06360547244549 202.08780577778816 1693.0116877406836 205.55285537242889 168.97237634658813 517.09466759860516 352.14747326076031 180.504289701581 172.95718035101891 604.79341028630733 270.00577965378761 250.2846812158823 167.86842496693134 235.47406814992428 133.49621406197548 1917.6414720714092 120.91731961071491 480.22285114228725 105.90648074448109 246.05494791269302
leaf_count=819 562 535 2738 761 455 2033 1806 1326 24258 4127 1118 811 6802 824 677 2072 1412 723 693 2423 1107 1003 673 943 536 7687 484 1927 425 985
internal_value=8.61125e-06 0.000137192 0.00375711 0.0109641 -0.000392504 -0.000629617 -0.00378341 -0.00667007 -0.000287551 0.000653266 -0.011363 0.00028224 -0.000981018 0.00186841 0.0015506 0.00226619 0.00403745 0 -0.000835168 0.00451796 -0.00343679 -0.0025556 0.00108099 0.00659052 0.00447191 0.000880442 0.00293442 0.000700403 0.00537312 0.00767715
internal_weight=18108.1 17973.7 2297.18 390.947 15676.6 14958.2 1458.37 1008.07 13499.8 7464.53 408.298 6956.96 3479.68 1235.02 3477.28 1906.23 1216.18 532.652 690.052 718.365 599.776 2244.66 551.649 404.446 383.781 3072.83 1155.19 788.217 307.994 366.972
internal_count=72745 72183 9218 1580 62965 60087 5892 4086 54195 29937 1653 27904 13965 4951 13939 7638 4873 2135 2765 2878 2433 9014 2212 1620 1539 12319 4632 3163 1236 1469
is_linear=0
shrinkage=0.03


Tree=27
num_leaves=31
num_cat=0
split_feature=2 2 17 12 2 17 17 3 8 17 12 4 0 0 0 3 14 4 11 8 16 8 6 0 16 0 10 0 4 9
split_gain=41.1854 36.1287 21.3435 18.0625 18.7994 15.9778 20.0073 14.8618 18.4488 18.0301 14.0821 13.8204 13.7172 21.3586 12.9367 12.8565 14.2151 13.5486 11.6195 11.1468 10.2918 10.1037 10.7517 14.2447 9.99023 9.92937 12.7913 9.59936 9.76934 9.38561
threshold=0.01041721465414547 -0.0026747410676218881 -1.0000000180025095e-35 1430.3758647168252 0.0006281900313568346 -1.0000000180025095e-35 1.0000000180025095e-35 -0.0020354754480268462 -0.57286679228028747 4.5000000000000009 1305.5079401951014 0.0040718752735240463 0.0033419059902675481 -1.0000000180025095e-35 -0.0010661793776095669 -0.0079029400024431245 0.087879756446449228 0.0022115871574547811 1047.2550000000003 -0.032779041621749085 2.5000000000000004 0.75450478723399905 59.267099729068953 0.00023719166123281672 1.0000000180025095e-35 0.00055247166938486331 1386.1158382073559 -0.00048350055414214188 0.00091155030559941666 -1.0079716185131131
decision_type=2 2 2 2 2 2 2 2 2 2 2 2 2 2 2 2 2 2 2 2 2 2 2 2 2 2 2 2 2 2
left_child=1 2 11 4 7 12 21 -3 -9 -10 18 -1 13 -6 -8 -4 17 29 -11 -16 -15 22 23 -7 -5 26 -12 28 -20 -17
right_child=-2 3 15 24 5 6 14 8 9 10 25 -13 -14 20 19 16 -18 -19 27 -21 -22 -23 -24 -25 -26 -27 -28 -29 -30 -31
